/* Species # 002         : (size= 003) (AvfFit= 6.072) (Age= 99.000)  */
/*-------------------------------------------------------------------*/
/* Organism # 000 Fitness:  0.000 Error:  0.000                      */
genomestart  0
trait 1 0.1 0.0332143561320587 0.9246207073629361 0.0 0.1955185977060783 0.05950744896472593 0.38631268718423173 0.0 
trait 2 1.4851723275995994 0.0 0.0 0.3469622947185841 0.0 0.0 0.0 0.551504150972531 
trait 3 0.15 0.7232235764466348 0.5192058659424122 0.32789975794854487 0.0 0.0 0.596167249062546 0.0 
node 1 1 1 1
node 2 2 1 1
node 3 3 1 3
node 4 1 0 2
node 7 1 0 0
gene  3 1 4 -8.027388500088126 0 1.0 -8.027388500088126 1
gene  3 2 4 15.421077822573281 0 2.0 15.421077822573281 1
gene  3 3 4 1.5620164047415999 0 3.0 1.5620164047415999 1
gene  1 1 7 -0.0779296785383854 0 8.0 -0.0779296785383854 1
gene  3 7 4 -18.46032623543519 0 9.0 -18.46032623543519 1
gene  2 3 7 3.9355636042186113 0 19.0 3.9355636042186113 1
gene  1 2 7 -0.19465131334040486 0 679.0 -0.19465131334040486 1
genomeend 0
/* Organism # 001 Fitness:  0.000 Error:  0.000                      */
genomestart  1
trait 1 0.1 0.0332143561320587 0.9246207073629361 0.0 0.1955185977060783 0.05950744896472593 0.38631268718423173 0.0 
trait 2 1.4851723275995994 0.0 0.0 0.3469622947185841 0.0 0.0 0.0 0.551504150972531 
trait 3 0.15 0.7232235764466348 0.5192058659424122 0.32789975794854487 0.0 0.0 0.596167249062546 0.0 
node 1 1 1 1
node 2 2 1 1
node 3 3 1 3
node 4 1 0 2
node 7 1 0 0
gene  3 1 4 -5.16926632581354 0 1.0 -5.16926632581354 1
gene  3 2 4 15.182449722447824 0 2.0 15.182449722447824 1
gene  3 3 4 3.373247092349149 0 3.0 3.373247092349149 1
gene  2 1 7 18.12898806099424 0 8.0 18.12898806099424 1
gene  3 7 4 2.062116304470056 0 9.0 2.062116304470056 1
gene  2 3 7 4.052896533515326 0 19.0 4.052896533515326 1
gene  1 2 7 -3.392433001664606 0 679.0 -3.392433001664606 1
genomeend 1
/* Organism # 002 Fitness:  0.000 Error:  0.000                      */
genomestart  2
trait 1 0.1 0.0 0.9246207073629361 0.0 0.1955185977060783 0.0 0.0 0.0 
trait 2 1.4851723275995994 0.0 0.0 0.3469622947185841 0.0 0.0 0.0 0.551504150972531 
trait 3 0.15 0.7232235764466348 0.5192058659424122 0.32789975794854487 0.0 0.0 0.596167249062546 0.0 
node 1 1 1 1
node 2 2 1 1
node 3 3 1 3
node 4 1 0 2
node 7 1 0 0
gene  3 1 4 -8.290365907419654 0 1.0 -8.290365907419654 1
gene  3 2 4 14.401067647104387 0 2.0 14.401067647104387 1
gene  3 3 4 4.140312835861108 0 3.0 4.140312835861108 1
gene  1 1 7 16.559163742868613 0 8.0 16.559163742868613 1
gene  3 7 4 -20.106393443212152 0 9.0 -20.106393443212152 1
gene  2 3 7 0.6820803307893147 0 19.0 0.6820803307893147 1
gene  1 2 7 -6.130765965014354 0 679.0 -6.130765965014354 1
genomeend 2
/*-------------------------------------------------------------------*/
/* Species # 008         : (size= 009) (AvfFit= 14.445) (Age= 96.000)  */
/*-------------------------------------------------------------------*/
/* Organism # 003 Fitness:  0.000 Error:  0.000                      */
genomestart  3
trait 1 1.319403542137719 0.0 1.3670931332778533 0.0 0.6863680723208003 0.0 0.5625343029602236 0.0 
trait 2 0.15000000000000002 0.5684040374247813 0.0 0.0 1.014656429938986 0.0 0.0 0.28048697294030844 
trait 3 0.0 0.0 0.05568057257745873 0.041481540836817266 0.004826749160569813 0.0 0.0 0.16469896006825968 
node 1 3 1 1
node 2 1 1 1
node 3 1 1 3
node 4 2 0 2
node 9 1 0 0
node 23 1 0 0
node 284 1 0 0
gene  1 1 4 -0.47509047614793687 0 1.0 -0.47509047614793687 0
gene  3 2 4 -8.46050498719468 0 2.0 -8.46050498719468 1
gene  2 3 4 -3.048279812788748 0 3.0 -3.048279812788748 1
gene  3 1 9 28.635673015926688 0 12.0 28.635673015926688 1
gene  1 9 4 -6.4794530403314035 0 13.0 -6.4794530403314035 1
gene  2 2 23 13.493063359947563 0 78.0 13.493063359947563 1
gene  2 23 4 18.49941191653974 0 79.0 18.49941191653974 1
gene  1 2 9 -15.416356435121749 0 92.0 -15.416356435121749 1
gene  1 3 9 -0.833671473251199 0 116.0 -0.833671473251199 1
gene  3 1 23 15.137907054591551 0 219.0 15.137907054591551 1
gene  1 9 23 2.3085624658111277 0 253.0 2.3085624658111277 1
gene  2 3 23 -0.9586970677752227 0 493.0 -0.9586970677752227 1
gene  1 1 284 0.6524246266017353 0 1357.0 0.6524246266017353 1
gene  1 284 4 -5.28181407716235 0 1358.0 -5.28181407716235 1
genomeend 3
/* Organism # 004 Fitness:  0.000 Error:  0.000                      */
genomestart  4
trait 1 1.319403542137719 0.0 1.3670931332778533 0.0 0.6863680723208003 0.0 0.5625343029602236 0.0 
trait 2 0.15000000000000002 0.5684040374247813 0.0 0.0 1.014656429938986 0.0 0.0 0.28048697294030844 
trait 3 0.0 0.0 0.05568057257745873 0.041481540836817266 0.004826749160569813 0.0 0.0 0.16469896006825968 
node 1 3 1 1
node 2 1 1 1
node 3 1 1 3
node 4 2 0 2
node 9 1 0 0
node 23 1 0 0
node 284 1 0 0
gene  1 1 4 -0.669575151972964 0 1.0 -0.669575151972964 0
gene  3 2 4 -10.477610736227382 0 2.0 -10.477610736227382 1
gene  2 3 4 -5.4557168220276075 0 3.0 -5.4557168220276075 1
gene  3 1 9 29.682976023563622 0 12.0 29.682976023563622 1
gene  1 9 4 -4.294276699207012 0 13.0 -4.294276699207012 1
gene  2 2 23 12.546019177023204 0 78.0 12.546019177023204 1
gene  2 23 4 18.49941191653974 0 79.0 18.49941191653974 1
gene  1 2 9 -1.4465443260071078 0 92.0 -1.4465443260071078 1
gene  1 3 9 -1.0757943418145826 0 116.0 -1.0757943418145826 1
gene  3 1 23 15.346144406664617 0 219.0 15.346144406664617 1
gene  1 9 23 0.6730270293677845 0 253.0 0.6730270293677845 1
gene  2 3 23 1.112750541003276 0 493.0 1.112750541003276 1
gene  1 1 284 0.6524246266017353 0 1357.0 0.6524246266017353 1
gene  1 284 4 -5.28181407716235 0 1358.0 -5.28181407716235 1
genomeend 4
/* Organism # 005 Fitness:  0.000 Error:  0.000                      */
genomestart  5
trait 1 1.319403542137719 0.0 1.3670931332778533 0.0 0.6863680723208003 0.0 0.5625343029602236 0.0 
trait 2 0.15000000000000002 0.5684040374247813 0.0 0.0 1.014656429938986 0.0 0.0 0.28048697294030844 
trait 3 0.0 0.0 0.05568057257745873 0.041481540836817266 0.004826749160569813 0.0 0.0 0.16469896006825968 
node 1 3 1 1
node 2 1 1 1
node 3 1 1 3
node 4 2 0 2
node 9 1 0 0
node 23 1 0 0
node 284 1 0 0
gene  1 1 4 -1.668584122367316 0 1.0 -1.668584122367316 0
gene  3 2 4 -6.734458886553086 0 2.0 -6.734458886553086 1
gene  2 3 4 -1.654755839350675 0 3.0 -1.654755839350675 1
gene  3 1 9 26.251599037678844 0 12.0 26.251599037678844 1
gene  1 9 4 -7.959032965011078 0 13.0 -7.959032965011078 1
gene  2 2 23 13.0395040716528 0 78.0 13.0395040716528 1
gene  2 23 4 16.349627869861155 0 79.0 16.349627869861155 1
gene  1 2 9 -13.685072278274642 0 92.0 -13.685072278274642 1
gene  1 3 9 -1.9763957076999732 0 116.0 -1.9763957076999732 1
gene  3 1 23 14.315662613950824 0 219.0 14.315662613950824 1
gene  1 9 23 3.2008685728429134 0 253.0 3.2008685728429134 1
gene  2 3 23 0.039687708098292473 0 493.0 0.039687708098292473 1
gene  1 1 284 -1.1046561231316958 0 1357.0 -1.1046561231316958 1
gene  1 284 4 2.0766293637059015 0 1358.0 2.0766293637059015 1
genomeend 5
/* Organism # 006 Fitness:  0.000 Error:  0.000                      */
genomestart  6
trait 1 1.319403542137719 0.0 1.3670931332778533 0.0 0.6863680723208003 0.0 0.5625343029602236 0.0 
trait 2 0.15000000000000002 0.5684040374247813 0.0 0.0 1.014656429938986 0.0 0.0 0.28048697294030844 
trait 3 0.0 0.0 0.05568057257745873 0.041481540836817266 0.004826749160569813 0.0 0.0 0.16469896006825968 
node 1 3 1 1
node 2 1 1 1
node 3 1 1 3
node 4 2 0 2
node 9 1 0 0
node 23 1 0 0
node 284 1 0 0
gene  1 1 4 0.4109063268593036 0 1.0 0.4109063268593036 0
gene  3 2 4 -7.4589363447328445 0 2.0 -7.4589363447328445 1
gene  2 3 4 -2.1169212737223084 0 3.0 -2.1169212737223084 1
gene  3 1 9 30.912793929982012 0 12.0 30.912793929982012 1
gene  1 9 4 -7.392360765886054 0 13.0 -7.392360765886054 1
gene  2 2 23 11.956219370684577 0 78.0 11.956219370684577 1
gene  2 23 4 17.744285029512508 0 79.0 17.744285029512508 1
gene  1 2 9 -16.938388052902898 0 92.0 -16.938388052902898 1
gene  1 3 9 1.257489177272717 0 116.0 1.257489177272717 1
gene  3 1 23 16.482844933867792 0 219.0 16.482844933867792 1
gene  1 9 23 3.339541136394379 0 253.0 3.339541136394379 1
gene  2 3 23 -0.12211316674999395 0 493.0 -0.12211316674999395 1
gene  1 1 284 0.6524246266017353 0 1357.0 0.6524246266017353 1
gene  1 284 4 -5.28181407716235 0 1358.0 -5.28181407716235 1
genomeend 6
/* Organism # 007 Fitness:  0.000 Error:  0.000                      */
genomestart  7
trait 1 1.319403542137719 0.0 1.3670931332778533 0.0 0.6863680723208003 0.0 0.5625343029602236 0.0 
trait 2 0.15000000000000002 0.5684040374247813 0.0 0.0 1.014656429938986 0.0 0.0 0.28048697294030844 
trait 3 0.0 0.0 0.05568057257745873 0.041481540836817266 0.004826749160569813 0.0 0.0 0.16469896006825968 
node 1 3 1 1
node 2 1 1 1
node 3 1 1 3
node 4 2 0 2
node 9 1 0 0
node 23 1 0 0
node 284 1 0 0
gene  1 1 4 -0.47509047614793687 0 1.0 -0.47509047614793687 0
gene  3 2 4 0.052229582566882815 0 2.0 0.052229582566882815 1
gene  2 3 4 -3.048279812788748 0 3.0 -3.048279812788748 1
gene  3 1 9 26.948291975220478 0 12.0 26.948291975220478 1
gene  1 9 4 -2.4424820147659774 0 13.0 -2.4424820147659774 1
gene  2 2 23 -0.38809164959727527 0 78.0 -0.38809164959727527 1
gene  2 23 4 16.001673912350853 0 79.0 16.001673912350853 1
gene  1 2 9 -1.276266107579914 0 92.0 -1.276266107579914 1
gene  1 3 9 2.25289767457223 0 116.0 2.25289767457223 1
gene  3 1 23 12.93753882326386 0 219.0 12.93753882326386 1
gene  1 9 23 2.3085624658111277 0 253.0 2.3085624658111277 1
gene  2 3 23 -2.281898508884689 0 493.0 -2.281898508884689 1
gene  1 1 284 1.7748904059629291 0 1357.0 1.7748904059629291 1
gene  1 284 4 -5.406101437255918 0 1358.0 -5.406101437255918 1
genomeend 7
/* Organism # 008 Fitness:  0.000 Error:  0.000                      */
genomestart  8
trait 1 1.319403542137719 0.0 1.3670931332778533 0.0 0.6863680723208003 0.0 0.5625343029602236 0.0 
trait 2 0.15000000000000002 0.5684040374247813 0.0 0.0 0.5170011299090533 0.0 0.0 1.1471069968462133 
trait 3 0.0 0.0 0.05568057257745873 0.041481540836817266 0.004826749160569813 0.0 0.0 0.16469896006825968 
node 1 3 1 1
node 2 1 1 1
node 3 1 1 3
node 4 2 0 2
node 9 1 0 0
node 23 1 0 0
node 284 1 0 0
gene  1 1 4 -0.2838395646990993 0 1.0 -0.2838395646990993 0
gene  3 2 4 -9.61014743525444 0 2.0 -9.61014743525444 1
gene  2 3 4 -3.0552954152917087 0 3.0 -3.0552954152917087 1
gene  3 1 9 26.817327117441433 0 12.0 26.817327117441433 1
gene  1 9 4 -5.566813692539601 0 13.0 -5.566813692539601 1
gene  2 2 23 12.3785793865109 0 78.0 12.3785793865109 1
gene  2 23 4 19.750478342974134 0 79.0 19.750478342974134 1
gene  1 2 9 -15.4631405167315 0 92.0 -15.4631405167315 1
gene  1 3 9 0.9656271756513406 0 116.0 0.9656271756513406 1
gene  3 1 23 14.02979558839414 0 219.0 14.02979558839414 1
gene  1 9 23 3.074419250505451 0 253.0 3.074419250505451 1
gene  2 3 23 -1.683680918712419 0 493.0 -1.683680918712419 1
gene  1 1 284 0.6524246266017353 0 1357.0 0.6524246266017353 1
gene  1 284 4 -2.266613459410324 0 1358.0 -2.266613459410324 1
genomeend 8
/* Organism # 009 Fitness:  0.000 Error:  0.000                      */
genomestart  9
trait 1 1.319403542137719 0.0 1.3670931332778533 0.0 0.6863680723208003 0.0 0.5625343029602236 0.0 
trait 2 0.15000000000000002 0.5684040374247813 0.0 0.0 1.014656429938986 0.0 0.0 0.28048697294030844 
trait 3 0.0 0.0 0.05568057257745873 0.041481540836817266 0.004826749160569813 0.0 0.0 0.16469896006825968 
node 1 3 1 1
node 2 1 1 1
node 3 3 1 3
node 4 2 0 2
node 9 1 0 0
node 23 1 0 0
node 284 1 0 0
gene  1 1 4 0.6843750168837948 0 1.0 0.6843750168837948 0
gene  3 2 4 -6.864598329960518 0 2.0 -6.864598329960518 1
gene  2 3 4 -2.2693656550792096 0 3.0 -2.2693656550792096 1
gene  3 1 9 27.84415406443566 0 12.0 27.84415406443566 1
gene  1 9 4 0.4673091479680305 0 13.0 0.4673091479680305 1
gene  2 2 23 13.08409062221562 0 78.0 13.08409062221562 1
gene  2 23 4 16.331665574098004 0 79.0 16.331665574098004 1
gene  1 2 9 -17.00039984725052 0 92.0 -17.00039984725052 1
gene  1 3 9 0.3654479854106754 0 116.0 0.3654479854106754 1
gene  3 1 23 13.831836275252538 0 219.0 13.831836275252538 1
gene  1 9 23 2.3085624658111277 0 253.0 2.3085624658111277 1
gene  2 3 23 0.09597483753969671 0 493.0 0.09597483753969671 1
gene  1 1 284 1.8466840990433966 0 1357.0 1.8466840990433966 1
gene  1 284 4 -5.28181407716235 0 1358.0 -5.28181407716235 1
genomeend 9
/* Organism # 010 Fitness:  0.000 Error:  0.000                      */
genomestart  10
trait 1 1.319403542137719 0.0 1.3670931332778533 0.0 0.6863680723208003 0.0 0.5625343029602236 0.0 
trait 2 0.15000000000000002 0.5684040374247813 0.0 0.0 1.014656429938986 0.0 0.0 0.28048697294030844 
trait 3 0.0 0.0 0.05568057257745873 0.041481540836817266 0.004826749160569813 0.0 0.0 0.16469896006825968 
node 1 3 1 1
node 2 1 1 1
node 3 1 1 3
node 4 2 0 2
node 9 1 0 0
node 23 2 0 0
node 284 1 0 0
gene  1 1 4 -2.388937359782055 0 1.0 -2.388937359782055 0
gene  3 2 4 -8.361888923958404 0 2.0 -8.361888923958404 1
gene  2 3 4 -2.954574916209102 0 3.0 -2.954574916209102 1
gene  3 1 9 26.498324268798978 0 12.0 26.498324268798978 1
gene  1 9 4 -3.9955654600516817 0 13.0 -3.9955654600516817 1
gene  2 2 23 13.420419388216152 0 78.0 13.420419388216152 1
gene  2 23 4 19.264886453985454 0 79.0 19.264886453985454 1
gene  1 2 9 -16.76626004700667 0 92.0 -16.76626004700667 1
gene  1 3 9 1.3863277784412298 0 116.0 1.3863277784412298 1
gene  3 1 23 17.45315910786824 0 219.0 17.45315910786824 1
gene  1 9 23 0.6223237920042051 0 253.0 0.6223237920042051 1
gene  2 3 23 -3.025431383494059 0 493.0 -3.025431383494059 1
gene  1 1 284 0.6524246266017353 0 1357.0 0.6524246266017353 1
gene  1 284 4 -0.7722717330947668 0 1358.0 -0.7722717330947668 1
genomeend 10
/* Organism # 011 Fitness:  0.000 Error:  0.000                      */
genomestart  11
trait 1 1.319403542137719 0.0 1.3670931332778533 0.0 0.6863680723208003 0.0 0.5625343029602236 0.0 
trait 2 0.15000000000000002 0.5684040374247813 0.0 0.0 1.014656429938986 0.0 0.0 0.28048697294030844 
trait 3 0.0 0.0 0.05568057257745873 0.041481540836817266 0.004826749160569813 0.0 0.0 0.16469896006825968 
node 1 3 1 1
node 2 1 1 1
node 3 1 1 3
node 4 2 0 2
node 9 1 0 0
node 23 1 0 0
node 284 1 0 0
gene  1 1 4 -1.113612121365248 0 1.0 -1.113612121365248 0
gene  3 2 4 -9.639105768347235 0 2.0 -9.639105768347235 1
gene  2 3 4 -3.020509487500912 0 3.0 -3.020509487500912 1
gene  3 1 9 26.59209965744326 0 12.0 26.59209965744326 1
gene  1 9 4 -8.856757731151374 0 13.0 -8.856757731151374 1
gene  2 2 23 15.362328458219173 0 78.0 15.362328458219173 1
gene  2 23 4 18.501205748360476 0 79.0 18.501205748360476 1
gene  1 2 9 -16.77522932431186 0 92.0 -16.77522932431186 1
gene  1 3 9 -2.410082042700633 0 116.0 -2.410082042700633 1
gene  3 1 23 13.707560862248013 0 219.0 13.707560862248013 1
gene  1 9 23 1.8903395605118394 0 253.0 1.8903395605118394 1
gene  2 3 23 -2.548187999367466 0 493.0 -2.548187999367466 1
gene  1 1 284 -0.3421692663292186 0 1357.0 -0.3421692663292186 1
gene  1 284 4 -7.343286216914018 0 1358.0 -7.343286216914018 1
genomeend 11
/*-------------------------------------------------------------------*/
/* Species # 012         : (size= 004) (AvfFit= 5.685) (Age= 94.000)  */
/*-------------------------------------------------------------------*/
/* Organism # 012 Fitness:  0.000 Error:  0.000                      */
genomestart  12
trait 1 0.0 0.0 0.0 0.8644718705335438 0.0 0.6399983082376043 0.462192395260271 0.465208255691718 
trait 2 0.2 0.0 0.0 0.0 0.0 0.0 0.0075665026756467114 0.0 
trait 3 0.3 0.4419805899723188 0.6835020200432732 0.14518539292886043 0.94460483311136 0.0 1.0396181727229927 0.0 
node 1 1 1 1
node 2 1 1 1
node 3 1 1 3
node 4 3 0 2
node 9 3 0 0
node 10 2 0 0
node 233 1 0 0
node 239 1 0 0
node 295 1 0 0
node 333 1 0 0
gene  1 1 4 10.225499190051732 0 1.0 10.225499190051732 1
gene  3 2 4 11.166150040032765 0 2.0 11.166150040032765 1
gene  3 3 4 -5.5181255756893925 0 3.0 -5.5181255756893925 1
gene  1 1 9 -3.5907283071014553 0 12.0 -3.5907283071014553 1
gene  3 9 4 -0.5936009356231124 0 13.0 -0.5936009356231124 0
gene  2 2 10 5.955539235712627 0 16.0 5.955539235712627 1
gene  2 10 4 -7.131138922196711 0 17.0 -7.131138922196711 1
gene  3 2 9 0.8672966803166078 0 126.0 0.8672966803166078 1
gene  3 9 10 4.065136789099498 0 763.0 4.065136789099498 1
gene  1 1 10 11.088275080817787 0 828.0 11.088275080817787 1
gene  2 3 10 10.997891206832003 0 911.0 10.997891206832003 1
gene  2 3 9 0.6481941961415774 0 1007.0 0.6481941961415774 1
gene  3 9 233 -3.738972264608279 0 1151.0 -3.738972264608279 1
gene  3 233 4 -2.288310818923128 0 1152.0 -2.288310818923128 1
gene  1 1 239 -5.441204343033103 0 1179.0 -5.441204343033103 1
gene  1 239 4 3.6863147460996335 0 1180.0 3.6863147460996335 1
gene  2 10 295 3.401466344542328 0 1411.0 3.401466344542328 1
gene  2 295 4 3.15690436151602 0 1412.0 3.15690436151602 1
gene  2 239 10 -2.1177063868327113 0 1542.0 -2.1177063868327113 1
gene  3 9 333 -0.5727069264450233 0 1556.0 -0.5727069264450233 1
gene  3 333 10 -0.13220902330502038 0 1557.0 -0.13220902330502038 1
genomeend 12
/* Organism # 013 Fitness:  0.000 Error:  0.000                      */
genomestart  13
trait 1 0.0 0.0 0.0 0.8644718705335438 0.0 0.6399983082376043 0.462192395260271 0.465208255691718 
trait 2 0.2 0.0 0.0 0.0 0.0 0.0 0.0075665026756467114 0.0 
trait 3 0.3 0.4419805899723188 0.6835020200432732 0.14518539292886043 0.94460483311136 0.0 1.0396181727229927 0.0 
node 1 1 1 1
node 2 1 1 1
node 3 1 1 3
node 4 3 0 2
node 9 3 0 0
node 10 2 0 0
node 233 1 0 0
node 239 1 0 0
node 295 1 0 0
node 333 1 0 0
gene  1 1 4 12.02177591989956 0 1.0 12.02177591989956 1
gene  3 2 4 -2.4453232158409355 0 2.0 -2.4453232158409355 1
gene  3 3 4 -3.9738154498227045 0 3.0 -3.9738154498227045 1
gene  1 1 9 -3.6420092686311025 0 12.0 -3.6420092686311025 1
gene  3 9 4 -0.8217132234199253 0 13.0 -0.8217132234199253 0
gene  2 2 10 7.284758084123057 0 16.0 7.284758084123057 1
gene  2 10 4 -0.6607466010969001 0 17.0 -0.6607466010969001 1
gene  3 2 9 0.7255707232638018 0 126.0 0.7255707232638018 1
gene  3 9 10 3.3172924735349456 0 763.0 3.3172924735349456 1
gene  1 1 10 11.188582587538248 0 828.0 11.188582587538248 1
gene  1 3 10 10.136311946636997 0 911.0 10.136311946636997 1
gene  2 3 9 0.3584868188582277 0 1007.0 0.3584868188582277 1
gene  3 9 233 -4.612373861905481 0 1151.0 -4.612373861905481 1
gene  3 233 4 -1.3489493419523084 0 1152.0 -1.3489493419523084 1
gene  1 1 239 -5.9915986859535 0 1179.0 -5.9915986859535 1
gene  1 239 4 2.929953880005482 0 1180.0 2.929953880005482 1
gene  2 10 295 2.231748026320315 0 1411.0 2.231748026320315 1
gene  2 295 4 0.9388281775968054 0 1412.0 0.9388281775968054 1
gene  2 239 10 -0.27005085913022336 0 1542.0 -0.27005085913022336 1
gene  3 9 333 0.702734282140778 0 1556.0 0.702734282140778 1
gene  3 333 10 -0.6769379035570837 0 1557.0 -0.6769379035570837 1
genomeend 13
/* Organism # 014 Fitness:  0.000 Error:  0.000                      */
genomestart  14
trait 1 0.0 0.0 0.0 0.8644718705335438 0.0 0.6399983082376043 0.462192395260271 0.465208255691718 
trait 2 0.2 0.0 0.0 0.0 0.0 0.0 0.0075665026756467114 0.0 
trait 3 0.3 0.4419805899723188 0.6835020200432732 0.14518539292886043 0.94460483311136 0.0 1.0396181727229927 0.0 
node 1 1 1 1
node 2 1 1 1
node 3 1 1 3
node 4 3 0 2
node 9 3 0 0
node 10 2 0 0
node 233 1 0 0
node 239 1 0 0
node 295 1 0 0
node 333 1 0 0
gene  1 1 4 -0.7253530860637782 0 1.0 -0.7253530860637782 1
gene  3 2 4 12.307581245154411 0 2.0 12.307581245154411 1
gene  3 3 4 -5.117251038947103 0 3.0 -5.117251038947103 1
gene  1 1 9 -1.8495819545918113 0 12.0 -1.8495819545918113 1
gene  3 9 4 -0.44071523755077824 0 13.0 -0.44071523755077824 0
gene  2 2 10 5.246795919259068 0 16.0 5.246795919259068 1
gene  2 10 4 -3.460166110401138 0 17.0 -3.460166110401138 1
gene  3 2 9 1.5473886256557368 0 126.0 1.5473886256557368 1
gene  3 9 10 -1.1435925783777101 0 763.0 -1.1435925783777101 1
gene  1 1 10 10.505352307893997 0 828.0 10.505352307893997 1
gene  1 3 10 9.357299662305113 0 911.0 9.357299662305113 1
gene  2 3 9 3.5041343246170444 0 1007.0 3.5041343246170444 1
gene  3 9 233 -3.5826589219237066 0 1151.0 -3.5826589219237066 1
gene  3 233 4 0.05419039866420894 0 1152.0 0.05419039866420894 1
gene  3 1 239 -6.340711555541285 0 1179.0 -6.340711555541285 1
gene  1 239 4 3.940574803093986 0 1180.0 3.940574803093986 1
gene  2 10 295 -0.9153294922550355 0 1411.0 -0.9153294922550355 1
gene  2 295 4 3.528979360271122 0 1412.0 3.528979360271122 1
gene  2 239 10 -1.8966160685516633 0 1542.0 -1.8966160685516633 1
gene  3 9 333 -1.6579227378572008 0 1556.0 -1.6579227378572008 1
gene  3 333 10 -2.455584813175968 0 1557.0 -2.455584813175968 1
genomeend 14
/* Organism # 015 Fitness:  0.000 Error:  0.000                      */
genomestart  15
trait 1 0.0 0.0 0.0 0.8644718705335438 0.0 0.6399983082376043 0.462192395260271 0.465208255691718 
trait 2 0.2 0.0 0.0 0.0 0.0 0.0 0.0075665026756467114 0.0 
trait 3 0.3 0.4419805899723188 0.6835020200432732 0.14518539292886043 0.94460483311136 0.0 1.0396181727229927 0.0 
node 1 1 1 1
node 2 1 1 1
node 3 1 1 3
node 4 3 0 2
node 9 3 0 0
node 10 2 0 0
node 233 1 0 0
node 239 1 0 0
node 295 1 0 0
node 333 1 0 0
gene  1 1 4 1.4042287435886895 0 1.0 1.4042287435886895 1
gene  3 2 4 11.671988939571238 0 2.0 11.671988939571238 1
gene  3 3 4 0.4740887157538978 0 3.0 0.4740887157538978 1
gene  1 1 9 -0.5039423634970777 0 12.0 -0.5039423634970777 1
gene  3 9 4 -1.6566028561566237 0 13.0 -1.6566028561566237 0
gene  2 2 10 7.154465879448615 0 16.0 7.154465879448615 1
gene  2 10 4 -2.210939572377181 0 17.0 -2.210939572377181 1
gene  3 2 9 -1.0339034354575085 0 126.0 -1.0339034354575085 1
gene  3 9 10 -2.239925581756263 0 763.0 -2.239925581756263 1
gene  1 1 10 1.3940928714357188 0 828.0 1.3940928714357188 1
gene  1 3 10 -2.10192057780792 0 911.0 -2.10192057780792 1
gene  2 3 9 0.7855213409827801 0 1007.0 0.7855213409827801 1
gene  3 9 233 -2.854378992120277 0 1151.0 -2.854378992120277 1
gene  3 233 4 -0.4522083794752384 0 1152.0 -0.4522083794752384 1
gene  1 1 239 -6.846691794717041 0 1179.0 -6.846691794717041 1
gene  1 239 4 6.206211390067012 0 1180.0 6.206211390067012 1
gene  2 10 295 0.31231087028934357 0 1411.0 0.31231087028934357 1
gene  2 295 4 2.339383973695063 0 1412.0 2.339383973695063 1
gene  2 239 10 -1.7225628222071117 0 1542.0 -1.7225628222071117 1
gene  3 9 333 -0.7196058491227204 0 1556.0 -0.7196058491227204 1
gene  3 333 10 2.4371287347991326 0 1557.0 2.4371287347991326 1
genomeend 15
/*-------------------------------------------------------------------*/
/* Species # 016         : (size= 002) (AvfFit= 4.000) (Age= 91.000)  */
/*-------------------------------------------------------------------*/
/* Organism # 016 Fitness:  0.000 Error:  0.000                      */
genomestart  16
trait 1 0.14235230495259857 0.0 0.7425971585857775 0.0 0.46284763608100365 0.0 0.4139683277153412 0.8010732797816037 
trait 2 0.4035980937704053 0.549349405133373 0.0 0.0 0.0 0.0 0.0 0.0 
trait 3 0.0 0.9518367067722958 0.0 0.0 0.8085302519942242 0.0 0.982943997779591 0.2698044388973392 
node 1 1 1 1
node 2 2 1 1
node 3 3 1 3
node 4 2 0 2
node 12 2 0 0
node 99 1 0 0
node 363 1 0 0
gene  1 1 4 -3.4747431035031893 0 1.0 -3.4747431035031893 0
gene  2 2 4 -3.1775385655553228 0 2.0 -3.1775385655553228 0
gene  2 3 4 -24.79843130608642 0 3.0 -24.79843130608642 1
gene  3 1 12 -16.223970930226404 0 27.0 -16.223970930226404 0
gene  2 12 4 -0.3828874512580688 0 28.0 -0.3828874512580688 1
gene  1 2 12 1.8526613869155573 0 161.0 1.8526613869155573 1
gene  2 2 99 -5.445403181325872 0 502.0 -5.445403181325872 1
gene  3 99 4 -4.031463590039028 0 503.0 -4.031463590039028 1
gene  1 1 99 2.201109688978205 0 634.0 2.201109688978205 1
gene  1 3 99 -1.3059345400235887 0 1086.0 -1.3059345400235887 1
gene  3 3 12 -3.4643675404174856 0 1221.0 -3.4643675404174856 1
gene  3 99 12 -0.34049148783866084 0 1446.0 -0.34049148783866084 1
gene  3 1 363 1.0 0 1684.0 0.0 1
gene  3 363 12 -16.223970930226404 0 1685.0 0.0 1
genomeend 16
/* Organism # 017 Fitness:  0.000 Error:  0.000                      */
genomestart  17
trait 1 0.14235230495259857 0.0 0.7425971585857775 0.0 0.46284763608100365 0.0 0.4139683277153412 0.8010732797816037 
trait 2 0.4035980937704053 0.549349405133373 0.0 0.0 0.0 0.0 0.0 0.0 
trait 3 0.0 0.9518367067722958 0.0 0.0 0.8085302519942242 0.0 0.982943997779591 0.2698044388973392 
node 1 1 1 1
node 2 2 1 1
node 3 3 1 3
node 4 2 0 2
node 12 2 0 0
node 99 1 0 0
node 363 1 0 0
gene  1 1 4 -3.4747431035031893 0 1.0 -3.4747431035031893 0
gene  2 2 4 -3.1775385655553228 0 2.0 -3.1775385655553228 0
gene  2 3 4 -24.79843130608642 0 3.0 -24.79843130608642 1
gene  3 1 12 -16.223970930226404 0 27.0 -16.223970930226404 0
gene  2 12 4 -0.3828874512580688 0 28.0 -0.3828874512580688 1
gene  1 2 12 1.8526613869155573 0 161.0 1.8526613869155573 1
gene  2 2 99 -5.445403181325872 0 502.0 -5.445403181325872 1
gene  3 99 4 -4.031463590039028 0 503.0 -4.031463590039028 1
gene  1 1 99 2.201109688978205 0 634.0 2.201109688978205 1
gene  1 3 99 -1.3059345400235887 0 1086.0 -1.3059345400235887 1
gene  3 3 12 -3.4643675404174856 0 1221.0 -3.4643675404174856 1
gene  3 99 12 -0.34049148783866084 0 1446.0 -0.34049148783866084 1
gene  3 1 363 1.0 0 1684.0 0.0 1
gene  3 363 12 -16.223970930226404 0 1685.0 0.0 1
gene  2 363 4 -4.21342095152442 0 1703.0 -4.21342095152442 1
genomeend 17
/*-------------------------------------------------------------------*/
/* Species # 021         : (size= 006) (AvfFit= 9.000) (Age= 89.000)  */
/*-------------------------------------------------------------------*/
/* Organism # 018 Fitness:  0.000 Error:  0.000                      */
genomestart  18
trait 1 0.7592889507010634 0.0 0.816796507506494 0.0 0.0 0.0 0.7865890651447301 0.0 
trait 2 0.4512646521495791 0.0 0.20538595283919747 0.9965049177419186 0.09198664649627347 0.0 0.0 0.0 
trait 3 0.9398377087053936 0.0 0.0 0.0 0.7177704564857915 0.9410232827910185 0.30320080769097 0.0 
node 1 2 1 1
node 2 3 1 1
node 3 3 1 3
node 4 1 0 2
node 9 1 0 0
node 10 1 0 0
node 11 1 0 0
node 32 1 0 0
node 287 1 0 0
node 352 1 0 0
gene  1 1 4 -10.908370838720717 0 1.0 -10.908370838720717 1
gene  2 2 4 5.9539083800439325 0 2.0 5.9539083800439325 1
gene  3 3 4 -1.3973225635746727 0 3.0 -1.3973225635746727 1
gene  1 1 9 -0.4140721672350074 0 12.0 -0.4140721672350074 1
gene  2 9 4 -0.969827312667445 0 13.0 -0.969827312667445 1
gene  2 2 10 -7.464486677500502 0 16.0 -7.464486677500502 1
gene  2 10 4 -1.99181035914797 0 17.0 -1.99181035914797 1
gene  1 1 11 -2.437070613964948 0 20.0 -2.437070613964948 1
gene  1 11 9 -0.8298442198563423 0 21.0 -0.8298442198563423 1
gene  1 10 11 -3.2235536691392443 0 26.0 -3.2235536691392443 1
gene  1 1 32 6.024172519370856 0 121.0 6.024172519370856 1
gene  1 32 11 -0.47307617781708833 0 122.0 -0.47307617781708833 1
gene  3 2 32 -8.024931915906478 0 178.0 -8.024931915906478 1
gene  1 1 10 -0.2609909125853766 0 352.0 -0.2609909125853766 1
gene  1 3 32 2.004601817629899 0 404.0 2.004601817629899 1
gene  2 10 9 1.7385728187655427 0 569.0 1.7385728187655427 0
gene  3 3 11 2.216897777962227 0 651.0 2.216897777962227 1
gene  1 32 10 11.111285956185053 0 720.0 11.111285956185053 1
gene  1 3 10 -2.922043562988388 0 1033.0 -2.922043562988388 1
gene  3 32 4 -7.476088987365044 0 1113.0 -7.476088987365044 1
gene  2 10 287 2.498510037338064 0 1372.0 2.498510037338064 1
gene  2 287 9 3.1908952539487094 0 1373.0 3.1908952539487094 0
gene  1 287 11 -1.2884678925425348 0 1450.0 -1.2884678925425348 1
gene  1 32 9 1.6285824558252764 0 1513.0 1.6285824558252764 1
gene  2 287 352 1.0 0 1629.0 0.0 1
gene  2 352 9 3.1908952539487094 0 1630.0 0.0 1
gene  1 287 4 5.0022284863817115 0 1658.0 5.0022284863817115 1
gene  1 1 287 -3.8518286787347824 0 1670.0 -3.8518286787347824 1
genomeend 18
/* Organism # 019 Fitness:  0.000 Error:  0.000                      */
genomestart  19
trait 1 0.7592889507010634 0.0 0.816796507506494 0.0 0.0 0.0 0.7865890651447301 0.0 
trait 2 0.4512646521495791 0.0 0.20538595283919747 0.9965049177419186 0.09198664649627347 0.0 0.0 0.0 
trait 3 0.9398377087053936 0.0 0.0 0.0 0.7177704564857915 0.9410232827910185 0.30320080769097 0.0 
node 1 2 1 1
node 2 3 1 1
node 3 3 1 3
node 4 1 0 2
node 9 1 0 0
node 10 1 0 0
node 11 1 0 0
node 32 1 0 0
node 287 1 0 0
node 352 1 0 0
gene  1 1 4 -11.303592496599679 0 1.0 -11.303592496599679 1
gene  2 2 4 4.494775685077959 0 2.0 4.494775685077959 1
gene  3 3 4 -0.697401435419308 0 3.0 -0.697401435419308 1
gene  1 1 9 -0.4140721672350074 0 12.0 -0.4140721672350074 1
gene  2 9 4 0.7403256847029109 0 13.0 0.7403256847029109 1
gene  2 2 10 -6.552815925145465 0 16.0 -6.552815925145465 1
gene  2 10 4 -1.6715742204549746 0 17.0 -1.6715742204549746 1
gene  1 1 11 -2.437070613964948 0 20.0 -2.437070613964948 1
gene  1 11 9 -0.7047259683645188 0 21.0 -0.7047259683645188 1
gene  1 10 11 -4.271245902353293 0 26.0 -4.271245902353293 1
gene  1 1 32 6.47677965074235 0 121.0 6.47677965074235 1
gene  1 32 11 -0.47307617781708833 0 122.0 -0.47307617781708833 1
gene  3 2 32 -7.00534999937137 0 178.0 -7.00534999937137 1
gene  1 1 10 -0.5927435293578631 0 352.0 -0.5927435293578631 1
gene  1 3 32 -2.2762374527308054 0 404.0 -2.2762374527308054 1
gene  2 10 9 0.39306361836846326 0 569.0 0.39306361836846326 0
gene  3 3 11 0.4601596160185273 0 651.0 0.4601596160185273 1
gene  1 32 10 13.560908578787865 0 720.0 13.560908578787865 1
gene  1 3 10 -0.5389060050546042 0 1033.0 -0.5389060050546042 1
gene  3 32 4 -5.252535747397162 0 1113.0 -5.252535747397162 1
gene  2 10 287 1.3772236056209741 0 1372.0 1.3772236056209741 1
gene  2 287 9 0.8775983259714104 0 1373.0 0.8775983259714104 0
gene  1 287 11 -0.7347640869375092 0 1450.0 -0.7347640869375092 1
gene  1 32 9 3.5798690866411533 0 1513.0 3.5798690866411533 1
gene  2 287 352 1.5943620187483205 0 1629.0 1.5943620187483205 1
gene  2 352 9 3.26063004733552 0 1630.0 3.26063004733552 1
gene  1 287 4 4.582877342930834 0 1658.0 4.582877342930834 1
gene  1 1 287 -1.9338036513593095 0 1670.0 -1.9338036513593095 1
genomeend 19
/* Organism # 020 Fitness:  0.000 Error:  0.000                      */
genomestart  20
trait 1 0.7592889507010634 0.0 0.816796507506494 0.0 0.0 0.0 0.7865890651447301 0.0 
trait 2 0.4512646521495791 0.0 0.20538595283919747 0.9965049177419186 0.09198664649627347 0.0 0.0 0.0 
trait 3 0.9398377087053936 0.0 0.0 0.0 0.7177704564857915 0.9410232827910185 0.30320080769097 0.0 
node 1 2 1 1
node 2 3 1 1
node 3 3 1 3
node 4 1 0 2
node 9 1 0 0
node 10 1 0 0
node 11 1 0 0
node 32 1 0 0
node 287 1 0 0
node 352 1 0 0
gene  1 1 4 -8.466687863509698 0 1.0 -8.466687863509698 1
gene  2 2 4 6.78341594442011 0 2.0 6.78341594442011 1
gene  3 3 4 -2.348536983047234 0 3.0 -2.348536983047234 1
gene  1 1 9 0.8824435088860767 0 12.0 0.8824435088860767 1
gene  2 9 4 -0.14653403535647835 0 13.0 -0.14653403535647835 1
gene  2 2 10 -9.301649553891771 0 16.0 -9.301649553891771 1
gene  2 10 4 -3.958321308968808 0 17.0 -3.958321308968808 1
gene  1 1 11 -2.57141344681005 0 20.0 -2.57141344681005 1
gene  1 11 9 -1.3569218159436753 0 21.0 -1.3569218159436753 1
gene  1 10 11 -5.186353280954142 0 26.0 -5.186353280954142 1
gene  1 1 32 4.668674171500778 0 121.0 4.668674171500778 1
gene  1 32 11 1.2443384269331328 0 122.0 1.2443384269331328 1
gene  3 2 32 -9.038311669715066 0 178.0 -9.038311669715066 1
gene  1 1 10 2.1697316615895237 0 352.0 2.1697316615895237 1
gene  1 3 32 1.4936130232692006 0 404.0 1.4936130232692006 1
gene  2 10 9 2.546776546820531 0 569.0 2.546776546820531 0
gene  3 3 11 1.3960966761426945 0 651.0 1.3960966761426945 1
gene  1 32 10 13.33611599950136 0 720.0 13.33611599950136 1
gene  1 3 10 -2.036654121779133 0 1033.0 -2.036654121779133 1
gene  3 32 4 -8.281081019005816 0 1113.0 -8.281081019005816 1
gene  2 10 287 3.774147747226161 0 1372.0 3.774147747226161 1
gene  2 287 9 1.802804459975242 0 1373.0 1.802804459975242 0
gene  1 287 11 -2.0295567140879713 0 1450.0 -2.0295567140879713 1
gene  1 32 9 3.1016617247050875 0 1513.0 3.1016617247050875 1
gene  2 287 352 0.6650153202189739 0 1629.0 0.6650153202189739 1
gene  2 352 9 3.1908952539487094 0 1630.0 3.1908952539487094 1
gene  1 287 4 4.775100950229279 0 1658.0 4.775100950229279 1
gene  1 1 287 -3.8518286787347824 0 1670.0 -3.8518286787347824 1
genomeend 20
/* Organism # 021 Fitness:  0.000 Error:  0.000                      */
genomestart  21
trait 1 0.7592889507010634 0.0 0.816796507506494 0.0 0.0 0.0 0.7865890651447301 0.0 
trait 2 0.4512646521495791 0.0 0.20538595283919747 0.9965049177419186 0.09198664649627347 0.0 0.0 0.0 
trait 3 0.9398377087053936 0.0 0.0 0.0 0.7177704564857915 0.9410232827910185 0.30320080769097 0.0 
node 1 2 1 1
node 2 3 1 1
node 3 3 1 3
node 4 1 0 2
node 9 1 0 0
node 10 1 0 0
node 11 1 0 0
node 32 1 0 0
node 287 1 0 0
node 352 1 0 0
gene  1 1 4 -12.667524588942927 0 1.0 -12.667524588942927 1
gene  2 2 4 3.5630521355912177 0 2.0 3.5630521355912177 1
gene  3 3 4 -2.2072479442547532 0 3.0 -2.2072479442547532 1
gene  1 1 9 1.9659521810822917 0 12.0 1.9659521810822917 1
gene  2 9 4 0.707365895575349 0 13.0 0.707365895575349 1
gene  2 2 10 -6.402935425250884 0 16.0 -6.402935425250884 1
gene  2 10 4 -1.612453190518539 0 17.0 -1.612453190518539 1
gene  1 1 11 -2.204871924632774 0 20.0 -2.204871924632774 1
gene  1 11 9 -0.8298442198563423 0 21.0 -0.8298442198563423 1
gene  1 10 11 -3.3021730425164537 0 26.0 -3.3021730425164537 1
gene  1 1 32 7.479271877576977 0 121.0 7.479271877576977 1
gene  1 32 11 -2.8896359289277207 0 122.0 -2.8896359289277207 1
gene  3 2 32 0.8827946212574178 0 178.0 0.8827946212574178 1
gene  1 1 10 -2.5275717567129212 0 352.0 -2.5275717567129212 1
gene  1 3 32 2.004601817629899 0 404.0 2.004601817629899 1
gene  2 10 9 -0.8210158218023933 0 569.0 -0.8210158218023933 0
gene  3 3 11 0.7780092759504296 0 651.0 0.7780092759504296 1
gene  1 32 10 13.281355388663941 0 720.0 13.281355388663941 1
gene  1 3 10 -0.9029093267194228 0 1033.0 -0.9029093267194228 1
gene  3 32 4 -8.540586164768886 0 1113.0 -8.540586164768886 1
gene  2 10 287 4.997076139645799 0 1372.0 4.997076139645799 1
gene  2 287 9 4.107407398656363 0 1373.0 4.107407398656363 0
gene  1 287 11 0.761820928625784 0 1450.0 0.761820928625784 1
gene  1 32 9 1.1240785808698155 0 1513.0 1.1240785808698155 1
gene  2 287 352 0.727582917644168 0 1629.0 0.727582917644168 1
gene  2 352 9 4.272330073085666 0 1630.0 4.272330073085666 1
gene  1 287 4 -0.3549833697204047 0 1658.0 -0.3549833697204047 1
gene  1 1 287 -5.641567506686807 0 1670.0 -5.641567506686807 1
genomeend 21
/* Organism # 022 Fitness:  0.000 Error:  0.000                      */
genomestart  22
trait 1 0.7592889507010634 0.0 0.816796507506494 0.0 0.0 0.0 0.7865890651447301 0.0 
trait 2 0.4512646521495791 0.0 0.20538595283919747 0.9965049177419186 0.09198664649627347 0.0 0.0 0.0 
trait 3 0.9398377087053936 0.0 0.0 0.0 0.7177704564857915 0.9410232827910185 0.30320080769097 0.0 
node 1 2 1 1
node 2 3 1 1
node 3 3 1 3
node 4 1 0 2
node 9 1 0 0
node 10 1 0 0
node 11 1 0 0
node 32 1 0 0
node 287 1 0 0
node 352 1 0 0
gene  1 1 4 -10.908370838720717 0 1.0 -10.908370838720717 1
gene  2 2 4 5.9539083800439325 0 2.0 5.9539083800439325 1
gene  3 3 4 -1.3973225635746727 0 3.0 -1.3973225635746727 1
gene  1 1 9 -0.4140721672350074 0 12.0 -0.4140721672350074 1
gene  2 9 4 -0.969827312667445 0 13.0 -0.969827312667445 1
gene  2 2 10 -7.464486677500502 0 16.0 -7.464486677500502 1
gene  2 10 4 -1.99181035914797 0 17.0 -1.99181035914797 1
gene  1 1 11 -2.437070613964948 0 20.0 -2.437070613964948 1
gene  1 11 9 -0.8298442198563423 0 21.0 -0.8298442198563423 1
gene  1 10 11 -3.2235536691392443 0 26.0 -3.2235536691392443 1
gene  1 1 32 6.024172519370856 0 121.0 6.024172519370856 1
gene  1 32 11 -0.47307617781708833 0 122.0 -0.47307617781708833 1
gene  3 2 32 -8.024931915906478 0 178.0 -8.024931915906478 1
gene  1 1 10 -0.2609909125853766 0 352.0 -0.2609909125853766 1
gene  1 3 32 2.004601817629899 0 404.0 2.004601817629899 1
gene  2 10 9 1.7385728187655427 0 569.0 1.7385728187655427 0
gene  3 3 11 2.216897777962227 0 651.0 2.216897777962227 1
gene  1 32 10 11.111285956185053 0 720.0 11.111285956185053 1
gene  1 3 10 -2.922043562988388 0 1033.0 -2.922043562988388 1
gene  3 32 4 -7.476088987365044 0 1113.0 -7.476088987365044 1
gene  2 10 287 2.498510037338064 0 1372.0 2.498510037338064 1
gene  2 287 9 3.1908952539487094 0 1373.0 3.1908952539487094 0
gene  1 287 11 -1.2884678925425348 0 1450.0 -1.2884678925425348 1
gene  1 32 9 1.6285824558252764 0 1513.0 1.6285824558252764 1
gene  2 287 352 1.0 0 1629.0 0.0 1
gene  2 352 9 3.1908952539487094 0 1630.0 0.0 1
gene  1 287 4 5.0022284863817115 0 1658.0 5.0022284863817115 1
genomeend 22
/* Organism # 023 Fitness:  0.000 Error:  0.000                      */
genomestart  23
trait 1 0.7592889507010634 0.0 0.816796507506494 0.0 0.0 0.0 0.7865890651447301 0.0 
trait 2 0.4512646521495791 0.0 0.20538595283919747 0.9965049177419186 0.09198664649627347 0.0 0.0 0.0 
trait 3 0.9398377087053936 0.0 0.0 0.0 0.7177704564857915 0.9410232827910185 0.30320080769097 0.0 
node 1 2 1 1
node 2 3 1 1
node 3 3 1 3
node 4 1 0 2
node 9 1 0 0
node 10 1 0 0
node 11 1 0 0
node 32 1 0 0
node 287 1 0 0
node 352 1 0 0
gene  1 1 4 -11.398368797174104 0 1.0 -11.398368797174104 1
gene  2 2 4 4.34186115324657 0 2.0 4.34186115324657 1
gene  3 3 4 -0.2685686988305609 0 3.0 -0.2685686988305609 1
gene  1 1 9 -0.5496059650201244 0 12.0 -0.5496059650201244 1
gene  2 9 4 0.13216362823790972 0 13.0 0.13216362823790972 1
gene  2 2 10 -7.57072587811201 0 16.0 -7.57072587811201 1
gene  2 10 4 -0.6546330233807489 0 17.0 -0.6546330233807489 1
gene  1 1 11 -2.919898376191039 0 20.0 -2.919898376191039 1
gene  1 11 9 -2.7472265219559437 0 21.0 -2.7472265219559437 1
gene  1 10 11 -3.7127663156179374 0 26.0 -3.7127663156179374 1
gene  1 1 32 6.052184520694471 0 121.0 6.052184520694471 1
gene  1 32 11 -1.8537229919094305 0 122.0 -1.8537229919094305 1
gene  3 2 32 -8.599587652557043 0 178.0 -8.599587652557043 1
gene  1 1 10 -2.615567812131672 0 352.0 -2.615567812131672 1
gene  1 3 32 1.7579920314424304 0 404.0 1.7579920314424304 1
gene  2 10 9 2.985276860374948 0 569.0 2.985276860374948 0
gene  3 3 11 1.3471225358781598 0 651.0 1.3471225358781598 1
gene  1 32 10 10.51554934789542 0 720.0 10.51554934789542 1
gene  1 3 10 -3.704787842807479 0 1033.0 -3.704787842807479 1
gene  3 32 4 -7.776561755501872 0 1113.0 -7.776561755501872 1
gene  2 10 287 1.9303151049531877 0 1372.0 1.9303151049531877 1
gene  2 287 9 0.9953082119776702 0 1373.0 0.9953082119776702 0
gene  1 287 11 -1.822597603947108 0 1450.0 -1.822597603947108 1
gene  1 32 9 -0.7450227941887162 0 1513.0 -0.7450227941887162 1
gene  2 287 352 -0.20509875092812768 0 1629.0 -0.20509875092812768 1
gene  2 352 9 3.1908952539487094 0 1630.0 3.1908952539487094 1
gene  1 287 4 7.30912365389964 0 1658.0 7.30912365389964 1
gene  1 1 287 -3.219840823380237 0 1670.0 -3.219840823380237 1
genomeend 23
/*-------------------------------------------------------------------*/
/* Species # 031         : (size= 003) (AvfFit= 5.882) (Age= 77.000)  */
/*-------------------------------------------------------------------*/
/* Organism # 024 Fitness:  0.000 Error:  0.000                      */
genomestart  24
trait 1 0.1 0.0 0.0 0.0 0.31230388643697465 0.0 0.0 0.0 
trait 2 0.23955322165148651 0.0 0.5042785136334291 0.3602816834350774 0.5376706919894554 0.6405526903346517 0.741842985888613 1.404751002233946 
trait 3 0.6658159438179508 0.5372502127024353 0.0 0.20910194277636912 0.9540879794824773 1.4092744118191578 1.108705725857471 0.011191143734474829 
node 1 1 1 1
node 2 1 1 1
node 3 1 1 3
node 4 1 0 2
node 9 1 0 0
node 23 1 0 0
node 62 1 0 0
node 181 1 0 0
node 319 1 0 0
gene  1 1 4 10.129072690280534 0 1.0 10.129072690280534 1
gene  2 2 4 5.8864466954553025 0 2.0 5.8864466954553025 1
gene  3 3 4 -3.931800364749783 0 3.0 -3.931800364749783 1
gene  1 1 9 8.365103590532707 0 12.0 8.365103590532707 1
gene  1 9 4 5.431842218401624 0 13.0 5.431842218401624 1
gene  1 2 23 0.5156574067270177 0 78.0 0.5156574067270177 1
gene  2 23 4 5.961100748198048 0 79.0 5.961100748198048 1
gene  1 2 9 0.2367021091524546 0 92.0 0.2367021091524546 1
gene  1 3 9 -18.268633530471746 0 116.0 -18.268633530471746 1
gene  3 1 23 -1.1023216940419935 0 219.0 -1.1023216940419935 1
gene  1 9 23 -4.0113554148803985 0 253.0 -4.0113554148803985 1
gene  3 1 62 -12.704254110014828 0 283.0 -12.704254110014828 1
gene  1 62 4 4.611039309098565 0 284.0 4.611039309098565 1
gene  2 62 9 -1.5291106723354568 0 337.0 -1.5291106723354568 1
gene  1 2 62 0.787628298315362 0 719.0 0.787628298315362 1
gene  1 3 62 -2.1918248640542335 0 812.0 -2.1918248640542335 1
gene  3 3 23 -0.4257335924367538 0 856.0 -0.4257335924367538 1
gene  1 9 181 1.4522056709293967 0 900.0 1.4522056709293967 1
gene  1 181 4 -10.158633259551713 0 901.0 -10.158633259551713 1
gene  1 23 181 -3.541896351403893 0 939.0 -3.541896351403893 0
gene  2 62 181 9.542674375918136 0 1075.0 9.542674375918136 1
gene  2 2 181 0.6204466694446216 0 1279.0 0.6204466694446216 1
gene  2 62 23 0.621845068340196 0 1335.0 0.621845068340196 1
gene  1 3 181 -10.413337682771173 0 1376.0 -10.413337682771173 1
gene  1 1 181 5.616314280071946 0 1398.0 5.616314280071946 1
gene  1 23 319 -3.9588102560074763 0 1505.0 -3.9588102560074763 1
gene  1 319 181 -1.385403091118764 0 1506.0 -1.385403091118764 1
genomeend 24
/* Organism # 025 Fitness:  0.000 Error:  0.000                      */
genomestart  25
trait 1 0.1 0.0 0.0 0.0 0.31230388643697465 0.0 0.0 0.0 
trait 2 0.23955322165148651 0.0 0.5042785136334291 0.3602816834350774 0.5376706919894554 0.6405526903346517 0.741842985888613 1.404751002233946 
trait 3 0.12991676202739666 0.5372502127024353 0.0 0.0 0.3399969033982716 1.4092744118191578 1.108705725857471 0.0 
node 1 1 1 1
node 2 1 1 1
node 3 1 1 3
node 4 1 0 2
node 9 1 0 0
node 23 1 0 0
node 62 1 0 0
node 181 1 0 0
node 319 1 0 0
gene  1 1 4 9.828294885274609 0 1.0 9.828294885274609 1
gene  2 2 4 -1.4099104833091 0 2.0 -1.4099104833091 1
gene  3 3 4 -4.229840535574085 0 3.0 -4.229840535574085 1
gene  1 1 9 10.451237568773577 0 12.0 10.451237568773577 1
gene  1 9 4 6.30079988865394 0 13.0 6.30079988865394 1
gene  1 2 23 2.0554393843589898 0 78.0 2.0554393843589898 1
gene  2 23 4 -0.11085642321428779 0 79.0 -0.11085642321428779 1
gene  1 2 9 0.32538364234098216 0 92.0 0.32538364234098216 1
gene  1 3 9 -0.7901463577027157 0 116.0 -0.7901463577027157 1
gene  3 1 23 2.4846786882331244 0 219.0 2.4846786882331244 1
gene  1 9 23 -3.8705634798171635 0 253.0 -3.8705634798171635 1
gene  3 1 62 -12.585012873428647 0 283.0 -12.585012873428647 1
gene  1 62 4 3.3330416599569874 0 284.0 3.3330416599569874 1
gene  2 62 9 -2.064115274092509 0 337.0 -2.064115274092509 1
gene  3 2 62 0.4517657963627555 0 719.0 0.4517657963627555 1
gene  1 3 62 -1.2366863064376412 0 812.0 -1.2366863064376412 1
gene  3 3 23 -1.8670514802696196 0 856.0 -1.8670514802696196 1
gene  1 9 181 0.4575367727110944 0 900.0 0.4575367727110944 1
gene  1 181 4 -8.463458715521597 0 901.0 -8.463458715521597 1
gene  1 23 181 -5.643589517316309 0 939.0 -5.643589517316309 0
gene  2 62 181 5.222018011615403 0 1075.0 5.222018011615403 1
gene  2 2 181 1.8941462727747098 0 1279.0 1.8941462727747098 1
gene  2 62 23 -0.6312395109497029 0 1335.0 -0.6312395109497029 1
gene  1 3 181 -0.9547733363713893 0 1376.0 -0.9547733363713893 1
gene  1 1 181 7.203775781351061 0 1398.0 7.203775781351061 1
gene  1 23 319 -4.385564275340728 0 1505.0 -4.385564275340728 1
gene  1 319 181 -2.980129247921574 0 1506.0 -2.980129247921574 1
genomeend 25
/* Organism # 026 Fitness:  0.000 Error:  0.000                      */
genomestart  26
trait 1 0.1 0.0 0.0 0.0 0.31230388643697465 0.0 0.0 0.0 
trait 2 0.23955322165148651 0.0 0.5042785136334291 0.3602816834350774 0.5376706919894554 0.6405526903346517 0.741842985888613 1.404751002233946 
trait 3 0.12991676202739666 0.5372502127024353 0.0 0.0 0.3399969033982716 1.4092744118191578 1.108705725857471 0.0 
node 1 1 1 1
node 2 1 1 1
node 3 1 1 3
node 4 1 0 2
node 9 1 0 0
node 23 1 0 0
node 62 1 0 0
node 181 1 0 0
node 319 1 0 0
gene  1 1 4 8.621212024652053 0 1.0 8.621212024652053 1
gene  2 2 4 7.687753396758986 0 2.0 7.687753396758986 1
gene  3 3 4 -2.4321106443564657 0 3.0 -2.4321106443564657 1
gene  1 1 9 8.973735575811185 0 12.0 8.973735575811185 1
gene  1 9 4 5.667346974531858 0 13.0 5.667346974531858 1
gene  1 2 23 3.0999047408543863 0 78.0 3.0999047408543863 1
gene  2 23 4 4.41241723714345 0 79.0 4.41241723714345 1
gene  1 2 9 0.22443119194024574 0 92.0 0.22443119194024574 1
gene  1 3 9 -15.963244542636236 0 116.0 -15.963244542636236 1
gene  3 1 23 -2.144647167117812 0 219.0 -2.144647167117812 1
gene  1 9 23 -3.5467214714256077 0 253.0 -3.5467214714256077 1
gene  3 1 62 -11.073124692159443 0 283.0 -11.073124692159443 1
gene  1 62 4 4.122086057966548 0 284.0 4.122086057966548 1
gene  2 62 9 -3.3929444005508786 0 337.0 -3.3929444005508786 1
gene  3 2 62 1.3693297739084858 0 719.0 1.3693297739084858 1
gene  1 3 62 -1.6906141492221227 0 812.0 -1.6906141492221227 1
gene  3 3 23 -0.5988857477325829 0 856.0 -0.5988857477325829 1
gene  1 9 181 -0.4580181828474513 0 900.0 -0.4580181828474513 1
gene  1 181 4 -7.824327029619577 0 901.0 -7.824327029619577 1
gene  1 23 181 -5.063751551675567 0 939.0 -5.063751551675567 0
gene  2 62 181 5.3825193670316684 0 1075.0 5.3825193670316684 1
gene  2 2 181 -0.09283763781156096 0 1279.0 -0.09283763781156096 1
gene  2 62 23 3.368051304204513 0 1335.0 3.368051304204513 1
gene  1 3 181 -8.248052913263614 0 1376.0 -8.248052913263614 1
gene  1 1 181 3.399066924000744 0 1398.0 3.399066924000744 1
gene  1 23 319 -4.011863459608668 0 1505.0 -4.011863459608668 1
gene  1 319 181 -3.6987235208468725 0 1506.0 -3.6987235208468725 1
genomeend 26
/*-------------------------------------------------------------------*/
/* Species # 033         : (size= 004) (AvfFit= 6.399) (Age= 74.000)  */
/*-------------------------------------------------------------------*/
/* Organism # 027 Fitness:  0.000 Error:  0.000                      */
genomestart  27
trait 1 0.0 0.0 0.39141268924672756 0.736546719528701 0.14334625481268476 0.967509110403552 0.0 0.0 
trait 2 0.0 1.5302255870514299 0.3753888460741934 2.5411569517184627 0.0 0.0 0.8189191469187502 1.0562648417183058 
trait 3 0.5016489433291154 0.5948905396792135 0.2064485525312958 0.31654117375433233 0.004826749160569813 0.0 0.08125186218224706 0.0 
node 1 1 1 1
node 2 1 1 1
node 3 2 1 3
node 4 1 0 2
node 9 1 0 0
node 68 1 0 0
node 89 1 0 0
node 100 2 0 0
node 241 1 0 0
node 277 1 0 0
node 343 1 0 0
gene  3 1 4 -18.792949444217022 0 1.0 -18.792949444217022 1
gene  3 2 4 -21.98990533697243 0 2.0 -21.98990533697243 1
gene  3 3 4 -1.94217918510723 0 3.0 -1.94217918510723 1
gene  1 1 9 4.009928499936553 0 12.0 4.009928499936553 1
gene  1 9 4 -0.08489419391244118 0 13.0 -0.08489419391244118 0
gene  2 3 9 0.9930759192627843 0 125.0 0.9930759192627843 1
gene  1 1 68 -1.2486035699348914 0 311.0 -1.2486035699348914 1
gene  1 68 4 -0.6363254122437605 0 312.0 -0.6363254122437605 1
gene  2 3 68 -1.1217529398144537 0 339.0 -1.1217529398144537 1
gene  3 2 89 -0.9452318719763086 0 441.0 -0.9452318719763086 0
gene  3 89 4 6.432758759700896 0 442.0 6.432758759700896 1
gene  1 1 100 2.337113025097803 0 504.0 2.337113025097803 1
gene  1 100 4 2.469492293347703 0 505.0 2.469492293347703 1
gene  2 3 100 -0.1377542690182033 0 528.0 -0.1377542690182033 1
gene  1 9 100 -1.3836594270269302 0 545.0 -1.3836594270269302 1
gene  3 2 100 4.277349580615418 0 1043.0 4.277349580615418 1
gene  2 9 68 5.422684065268509 0 1083.0 5.422684065268509 1
gene  1 9 241 0.5473437894282446 0 1187.0 0.5473437894282446 1
gene  1 241 4 1.2187980010467634 0 1188.0 1.2187980010467634 1
gene  3 1 277 -3.156186126642258 0 1326.0 -3.156186126642258 1
gene  1 277 100 -3.6787483015171203 0 1327.0 -3.6787483015171203 1
gene  1 2 9 -5.269187808438432 0 1343.0 -5.269187808438432 1
gene  2 241 68 -0.44696514941640264 0 1532.0 -0.44696514941640264 1
gene  3 2 343 0.5916275737151477 0 1599.0 0.5916275737151477 1
gene  3 343 89 2.914466660162073 0 1600.0 2.914466660162073 1
genomeend 27
/* Organism # 028 Fitness:  0.000 Error:  0.000                      */
genomestart  28
trait 1 0.0 0.0 0.39141268924672756 0.736546719528701 0.14334625481268476 0.967509110403552 0.0 0.0 
trait 2 0.0 1.5302255870514299 0.3753888460741934 2.5411569517184627 0.0 0.0 0.8189191469187502 1.0562648417183058 
trait 3 0.5016489433291154 0.5948905396792135 0.2064485525312958 0.31654117375433233 0.004826749160569813 0.0 0.08125186218224706 0.0 
node 1 1 1 1
node 2 1 1 1
node 3 2 1 3
node 4 1 0 2
node 9 1 0 0
node 68 1 0 0
node 89 1 0 0
node 100 2 0 0
node 241 1 0 0
node 277 1 0 0
node 343 1 0 0
node 364 1 0 0
gene  3 1 4 -19.620327917731075 0 1.0 -19.620327917731075 1
gene  3 2 4 -19.533203012015573 0 2.0 -19.533203012015573 1
gene  3 3 4 25.733403904019745 0 3.0 25.733403904019745 1
gene  1 1 9 5.772181931368702 0 12.0 5.772181931368702 1
gene  1 9 4 -2.4957280318657125 0 13.0 -2.4957280318657125 0
gene  2 3 9 0.9930759192627843 0 125.0 0.9930759192627843 1
gene  1 1 68 -0.5694189561421006 0 311.0 -0.5694189561421006 1
gene  1 68 4 -2.480317580945544 0 312.0 -2.480317580945544 1
gene  2 3 68 13.443914651315334 0 339.0 13.443914651315334 1
gene  3 2 89 -0.9452318719763086 0 441.0 -0.9452318719763086 0
gene  3 89 4 5.060815066695938 0 442.0 5.060815066695938 0
gene  1 1 100 2.337113025097803 0 504.0 2.337113025097803 1
gene  1 100 4 3.638355442001928 0 505.0 3.638355442001928 1
gene  2 3 100 -0.6845648653287568 0 528.0 -0.6845648653287568 1
gene  1 9 100 -2.8219305985250225 0 545.0 -2.8219305985250225 1
gene  3 2 100 5.265500904303222 0 1043.0 5.265500904303222 1
gene  2 9 68 3.3497432293806173 0 1083.0 3.3497432293806173 1
gene  1 9 241 4.751323752150075 0 1187.0 4.751323752150075 1
gene  1 241 4 -1.8401941386945155 0 1188.0 -1.8401941386945155 1
gene  3 1 277 -1.2378498016870436 0 1326.0 -1.2378498016870436 1
gene  1 277 100 -3.6787483015171203 0 1327.0 -3.6787483015171203 1
gene  1 2 9 -3.220117949299532 0 1343.0 -3.220117949299532 1
gene  2 241 68 -1.6821010102971008 0 1532.0 -1.6821010102971008 1
gene  3 2 343 2.8329343097009874 0 1599.0 2.8329343097009874 1
gene  3 343 89 2.914466660162073 0 1600.0 2.914466660162073 1
gene  3 89 364 1.0 0 1687.0 0.0 1
gene  3 364 4 5.060815066695938 0 1688.0 0.0 1
genomeend 28
/* Organism # 029 Fitness:  0.000 Error:  0.000                      */
genomestart  29
trait 1 0.0 0.0 0.39141268924672756 0.736546719528701 0.14334625481268476 0.967509110403552 0.0 0.0 
trait 2 0.0 1.5302255870514299 0.3753888460741934 2.5411569517184627 0.0 0.0 0.8189191469187502 1.0562648417183058 
trait 3 0.5016489433291154 0.5948905396792135 0.2064485525312958 0.31654117375433233 0.004826749160569813 0.0 0.08125186218224706 0.0 
node 1 1 1 1
node 2 1 1 1
node 3 2 1 3
node 4 1 0 2
node 9 1 0 0
node 68 1 0 0
node 89 1 0 0
node 100 2 0 0
node 241 1 0 0
node 277 1 0 0
node 343 1 0 0
gene  3 1 4 -18.23511335447997 0 1.0 -18.23511335447997 1
gene  3 2 4 -17.517826782060606 0 2.0 -17.517826782060606 1
gene  3 3 4 25.76073626574739 0 3.0 25.76073626574739 1
gene  1 1 9 8.024024607408494 0 12.0 8.024024607408494 1
gene  1 9 4 -1.866690477075785 0 13.0 -1.866690477075785 0
gene  2 3 9 1.156108753114596 0 125.0 1.156108753114596 1
gene  1 1 68 1.0870702552379694 0 311.0 1.0870702552379694 1
gene  1 68 4 -0.16392306469031492 0 312.0 -0.16392306469031492 1
gene  2 3 68 14.551430271252872 0 339.0 14.551430271252872 1
gene  3 2 89 -2.6873533363032243 0 441.0 -2.6873533363032243 0
gene  3 89 4 3.5997651308691556 0 442.0 3.5997651308691556 1
gene  1 1 100 -0.03602318751383482 0 504.0 -0.03602318751383482 1
gene  1 100 4 3.278480213587756 0 505.0 3.278480213587756 1
gene  2 3 100 -1.5072644711747778 0 528.0 -1.5072644711747778 1
gene  1 9 100 -2.8546861298356547 0 545.0 -2.8546861298356547 1
gene  3 2 100 5.772154561243388 0 1043.0 5.772154561243388 1
gene  2 9 68 4.045843545511135 0 1083.0 4.045843545511135 1
gene  1 9 241 2.414265899815914 0 1187.0 2.414265899815914 1
gene  1 241 4 -0.6858972644167942 0 1188.0 -0.6858972644167942 1
gene  3 1 277 -0.6863649065048038 0 1326.0 -0.6863649065048038 1
gene  1 277 100 -4.479579403291675 0 1327.0 -4.479579403291675 1
gene  1 2 9 1.9166567958944762 0 1343.0 1.9166567958944762 1
gene  2 241 68 -2.108277083323177 0 1532.0 -2.108277083323177 1
gene  3 2 343 2.8329343097009874 0 1599.0 2.8329343097009874 1
gene  3 343 89 2.914466660162073 0 1600.0 2.914466660162073 1
genomeend 29
/* Organism # 030 Fitness:  0.000 Error:  0.000                      */
genomestart  30
trait 1 0.0 0.0 0.39141268924672756 0.736546719528701 0.14334625481268476 0.967509110403552 0.0 0.0 
trait 2 0.0 1.5302255870514299 0.3753888460741934 2.5411569517184627 0.0 0.0 0.8189191469187502 1.0562648417183058 
trait 3 0.5016489433291154 0.5948905396792135 0.2064485525312958 0.31654117375433233 0.004826749160569813 0.0 0.08125186218224706 0.0 
node 1 1 1 1
node 2 1 1 1
node 3 2 1 3
node 4 1 0 2
node 9 1 0 0
node 68 1 0 0
node 89 1 0 0
node 100 2 0 0
node 241 1 0 0
node 277 1 0 0
node 343 1 0 0
gene  3 1 4 -15.968077665508506 0 1.0 -15.968077665508506 1
gene  3 2 4 -24.724480350200164 0 2.0 -24.724480350200164 1
gene  3 3 4 24.988719904271615 0 3.0 24.988719904271615 1
gene  1 1 9 4.744911903995525 0 12.0 4.744911903995525 1
gene  1 9 4 -0.08765652066219465 0 13.0 -0.08765652066219465 1
gene  2 3 9 -4.434141788176149 0 125.0 -4.434141788176149 1
gene  1 1 68 1.229721341985842 0 311.0 1.229721341985842 1
gene  1 68 4 -0.9060385213364108 0 312.0 -0.9060385213364108 1
gene  2 3 68 13.606706302002063 0 339.0 13.606706302002063 1
gene  3 2 89 -1.0978640272804085 0 441.0 -1.0978640272804085 0
gene  3 89 4 4.652790670445361 0 442.0 4.652790670445361 1
gene  1 1 100 2.0675915124431006 0 504.0 2.0675915124431006 1
gene  1 100 4 6.2307271779118425 0 505.0 6.2307271779118425 1
gene  2 3 100 -2.4712266718015803 0 528.0 -2.4712266718015803 1
gene  1 9 100 -6.460469205819115 0 545.0 -6.460469205819115 1
gene  3 2 100 2.828995836187618 0 1043.0 2.828995836187618 1
gene  2 9 68 6.643668739489599 0 1083.0 6.643668739489599 1
gene  1 9 241 3.0247349792446285 0 1187.0 3.0247349792446285 1
gene  1 241 4 -0.18043975498716858 0 1188.0 -0.18043975498716858 1
gene  3 1 277 2.2245740511754457 0 1326.0 2.2245740511754457 1
gene  1 277 100 -2.4494991721296127 0 1327.0 -2.4494991721296127 1
gene  1 2 9 -0.17143652993579422 0 1343.0 -0.17143652993579422 1
gene  2 241 68 -3.5821513646341705 0 1532.0 -3.5821513646341705 1
gene  3 2 343 -0.19679876580302902 0 1599.0 -0.19679876580302902 1
gene  3 343 89 3.893693826350521 0 1600.0 3.893693826350521 1
genomeend 30
/*-------------------------------------------------------------------*/
/* Species # 034         : (size= 004) (AvfFit= 6.535) (Age= 74.000)  */
/*-------------------------------------------------------------------*/
/* Organism # 031 Fitness:  0.000 Error:  0.000                      */
genomestart  31
trait 1 0.0 0.0 0.0 0.0 0.6930773596747741 0.0 0.0 0.0 
trait 2 0.15000000000000002 0.0 0.0 0.0 0.0 0.7295767118920674 0.11427232652282371 0.0 
trait 3 0.1476686830473217 0.0 0.0 0.041481540836817266 0.19890053175103883 0.2846192864607642 0.0 0.16469896006825968 
node 1 1 1 1
node 2 1 1 1
node 3 2 1 3
node 4 1 0 2
node 9 2 0 0
node 23 1 0 0
node 100 1 0 0
node 136 1 0 0
node 144 1 0 0
node 228 1 0 0
node 280 1 0 0
node 310 1 0 0
gene  1 1 4 5.803765313986361 0 1.0 5.803765313986361 1
gene  2 2 4 -7.28106649550095 0 2.0 -7.28106649550095 1
gene  3 3 4 -2.9806678541176606 0 3.0 -2.9806678541176606 1
gene  1 1 9 -0.5366605526698713 0 12.0 -0.5366605526698713 1
gene  1 9 4 10.719568653374562 0 13.0 10.719568653374562 1
gene  2 2 23 -4.299256743025749 0 78.0 -4.299256743025749 1
gene  2 23 4 3.9854689912707215 0 79.0 3.9854689912707215 1
gene  1 2 9 0.08224831974927799 0 92.0 0.08224831974927799 0
gene  3 3 9 8.24736676823492 0 116.0 8.24736676823492 1
gene  3 1 23 -6.097552123788392 0 219.0 -6.097552123788392 1
gene  3 23 9 1.5943200723316275 0 302.0 1.5943200723316275 1
gene  1 1 100 -1.630649064685104 0 504.0 -1.630649064685104 1
gene  1 100 4 -4.743310256940842 0 505.0 -4.743310256940842 1
gene  2 23 100 5.577653658431546 0 554.0 5.577653658431546 1
gene  3 100 9 -1.3788096002102486 0 566.0 -1.3788096002102486 1
gene  3 23 136 6.984146455843176 0 684.0 6.984146455843176 1
gene  3 136 9 -7.717596082764859 0 685.0 -7.717596082764859 1
gene  1 2 144 -0.16221458878373873 0 714.0 -0.16221458878373873 1
gene  1 144 9 0.49460535203222233 0 715.0 0.49460535203222233 1
gene  1 144 100 6.860310238553234 0 881.0 6.860310238553234 1
gene  3 23 144 -3.2898715163665866 0 1076.0 -3.2898715163665866 1
gene  2 1 144 11.055470776305825 0 1098.0 11.055470776305825 1
gene  2 23 228 1.8242102218452547 0 1138.0 1.8242102218452547 1
gene  2 228 4 2.6753881796268257 0 1139.0 2.6753881796268257 1
gene  3 136 100 -2.429778343216233 0 1178.0 -2.429778343216233 1
gene  3 1 228 5.2203510219367875 0 1201.0 5.2203510219367875 1
gene  2 1 136 2.0821915281807404 0 1214.0 2.0821915281807404 1
gene  1 1 280 -0.18951939600639872 0 1344.0 -0.18951939600639872 1
gene  1 280 9 -1.1912166323518956 0 1345.0 -1.1912166323518956 1
gene  3 144 228 -0.6874611657782419 0 1361.0 -0.6874611657782419 1
gene  1 144 310 -1.1035904016115445 0 1470.0 -1.1035904016115445 1
gene  1 310 9 1.178636154679168 0 1471.0 1.178636154679168 1
gene  2 9 228 3.9859487616863962 0 1610.0 3.9859487616863962 1
genomeend 31
/* Organism # 032 Fitness:  0.000 Error:  0.000                      */
genomestart  32
trait 1 0.0 0.0 0.0 0.0 0.6930773596747741 0.0 0.0 0.0 
trait 2 0.15000000000000002 0.0 0.0 0.0 0.09231938754423141 0.0 0.11427232652282371 0.0 
trait 3 0.1476686830473217 0.0 0.0 0.041481540836817266 0.19890053175103883 0.2846192864607642 0.0 0.16469896006825968 
node 1 1 1 1
node 2 1 1 1
node 3 2 1 3
node 4 1 0 2
node 9 2 0 0
node 23 1 0 0
node 100 1 0 0
node 136 1 0 0
node 144 1 0 0
node 228 1 0 0
node 280 1 0 0
node 310 1 0 0
gene  1 1 4 2.841160548285903 0 1.0 2.841160548285903 1
gene  2 2 4 -6.381706745367726 0 2.0 -6.381706745367726 1
gene  3 3 4 -2.6249242588866912 0 3.0 -2.6249242588866912 1
gene  1 1 9 0.43708798370781426 0 12.0 0.43708798370781426 1
gene  1 9 4 10.631214311755762 0 13.0 10.631214311755762 1
gene  2 2 23 -1.4807322769313307 0 78.0 -1.4807322769313307 1
gene  2 23 4 2.0021594614077265 0 79.0 2.0021594614077265 1
gene  1 2 9 -0.33453942007621357 0 92.0 -0.33453942007621357 0
gene  3 3 9 2.0605750575799258 0 116.0 2.0605750575799258 1
gene  3 1 23 -2.28653915918136 0 219.0 -2.28653915918136 1
gene  3 23 9 5.1243580079711 0 302.0 5.1243580079711 1
gene  1 1 100 -0.7540150403300494 0 504.0 -0.7540150403300494 1
gene  1 100 4 -3.1204012346675 0 505.0 -3.1204012346675 1
gene  2 23 100 2.224293542044914 0 554.0 2.224293542044914 1
gene  3 100 9 -4.521279857844357 0 566.0 -4.521279857844357 1
gene  3 23 136 9.437805813301738 0 684.0 9.437805813301738 1
gene  3 136 9 -9.064372343101075 0 685.0 -9.064372343101075 1
gene  1 2 144 2.2601513749849618 0 714.0 2.2601513749849618 1
gene  1 144 9 0.9641152867780669 0 715.0 0.9641152867780669 1
gene  1 144 100 2.059366711709484 0 881.0 2.059366711709484 1
gene  3 23 144 -1.5553271598801852 0 1076.0 -1.5553271598801852 1
gene  2 1 144 12.837021696726683 0 1098.0 12.837021696726683 1
gene  2 23 228 3.9439943732156073 0 1138.0 3.9439943732156073 1
gene  2 228 4 2.650159550333605 0 1139.0 2.650159550333605 1
gene  3 136 100 -0.7673240064171168 0 1178.0 -0.7673240064171168 1
gene  3 1 228 3.493953868722131 0 1201.0 3.493953868722131 1
gene  2 1 136 2.084668651039745 0 1214.0 2.084668651039745 1
gene  1 1 280 -0.9073345407857786 0 1344.0 -0.9073345407857786 1
gene  1 280 9 -0.6231848629760959 0 1345.0 -0.6231848629760959 1
gene  3 144 228 -0.6874611657782419 0 1361.0 -0.6874611657782419 1
gene  1 144 310 -1.1224235552169766 0 1470.0 -1.1224235552169766 1
gene  1 310 9 -1.8757987999040835 0 1471.0 -1.8757987999040835 1
gene  2 9 228 4.538117150949871 0 1610.0 4.538117150949871 1
genomeend 32
/* Organism # 033 Fitness:  0.000 Error:  0.000                      */
genomestart  33
trait 1 0.0 0.0 0.0 0.0 0.6930773596747741 0.0 0.0 0.0 
trait 2 0.15000000000000002 0.0 0.0 0.0 0.09231938754423141 0.0 0.11427232652282371 0.0 
trait 3 0.1476686830473217 0.0 0.0 0.041481540836817266 0.19890053175103883 0.2846192864607642 0.0 0.16469896006825968 
node 1 1 1 1
node 2 1 1 1
node 3 2 1 3
node 4 1 0 2
node 9 2 0 0
node 23 1 0 0
node 100 1 0 0
node 136 1 0 0
node 144 1 0 0
node 228 1 0 0
node 280 1 0 0
node 310 1 0 0
gene  1 1 4 4.231259075506869 0 1.0 4.231259075506869 1
gene  2 2 4 -5.441101524793916 0 2.0 -5.441101524793916 1
gene  3 3 4 -3.5146813430429846 0 3.0 -3.5146813430429846 1
gene  1 1 9 1.8804973555364504 0 12.0 1.8804973555364504 1
gene  1 9 4 8.53083911121815 0 13.0 8.53083911121815 1
gene  2 2 23 -2.077025828706522 0 78.0 -2.077025828706522 1
gene  2 23 4 2.6783832162859436 0 79.0 2.6783832162859436 1
gene  1 2 9 -0.02434892877171102 0 92.0 -0.02434892877171102 0
gene  3 3 9 6.256611480582295 0 116.0 6.256611480582295 1
gene  3 1 23 -4.000803963484304 0 219.0 -4.000803963484304 1
gene  3 23 9 3.420079223674479 0 302.0 3.420079223674479 1
gene  1 1 100 -3.123891598133791 0 504.0 -3.123891598133791 1
gene  1 100 4 -3.1204012346675 0 505.0 -3.1204012346675 1
gene  2 23 100 3.4309685208457656 0 554.0 3.4309685208457656 1
gene  3 100 9 -2.240963972916407 0 566.0 -2.240963972916407 1
gene  3 23 136 7.222139141306638 0 684.0 7.222139141306638 1
gene  2 136 9 -9.263119946145313 0 685.0 -9.263119946145313 1
gene  1 2 144 2.2601513749849618 0 714.0 2.2601513749849618 1
gene  1 144 9 0.25559540986144036 0 715.0 0.25559540986144036 1
gene  1 144 100 4.547608727527856 0 881.0 4.547608727527856 1
gene  3 23 144 -3.333255327404843 0 1076.0 -3.333255327404843 1
gene  2 1 144 12.837021696726683 0 1098.0 12.837021696726683 1
gene  2 23 228 3.050668896421171 0 1138.0 3.050668896421171 1
gene  2 228 4 2.650159550333605 0 1139.0 2.650159550333605 1
gene  3 136 100 -0.8561413913768836 0 1178.0 -0.8561413913768836 1
gene  3 1 228 3.417412649170107 0 1201.0 3.417412649170107 1
gene  2 1 136 2.247406255056143 0 1214.0 2.247406255056143 1
gene  1 1 280 -1.019265702802935 0 1344.0 -1.019265702802935 1
gene  1 280 9 -1.1912166323518956 0 1345.0 -1.1912166323518956 1
gene  3 144 228 -0.6874611657782419 0 1361.0 -0.6874611657782419 1
gene  1 144 310 -1.1035904016115445 0 1470.0 -1.1035904016115445 1
gene  1 310 9 -1.2305451517145982 0 1471.0 -1.2305451517145982 1
gene  2 9 228 3.9859487616863962 0 1610.0 3.9859487616863962 1
genomeend 33
/* Organism # 034 Fitness:  0.000 Error:  0.000                      */
genomestart  34
trait 1 0.0 0.0 0.0 0.0 0.6930773596747741 0.0 0.0 0.0 
trait 2 0.15000000000000002 0.0 0.0 0.0 0.09231938754423141 0.0 0.11427232652282371 0.0 
trait 3 0.1476686830473217 0.0 0.0 0.041481540836817266 0.19890053175103883 0.2846192864607642 0.0 0.16469896006825968 
node 1 1 1 1
node 2 1 1 1
node 3 2 1 3
node 4 1 0 2
node 9 2 0 0
node 23 1 0 0
node 100 1 0 0
node 136 1 0 0
node 144 1 0 0
node 228 1 0 0
node 280 1 0 0
node 310 1 0 0
gene  1 1 4 4.926276759354704 0 1.0 4.926276759354704 1
gene  2 2 4 -4.962464115503635 0 2.0 -4.962464115503635 1
gene  3 3 4 -3.8148362555261683 0 3.0 -3.8148362555261683 1
gene  3 1 9 3.1935056454191946 0 12.0 3.1935056454191946 1
gene  1 9 4 6.1934185005903934 0 13.0 6.1934185005903934 1
gene  2 2 23 -2.3506471491010372 0 78.0 -2.3506471491010372 1
gene  2 23 4 2.6851259537596985 0 79.0 2.6851259537596985 1
gene  1 2 9 -0.8742857196601833 0 92.0 -0.8742857196601833 0
gene  3 3 9 6.408385828640979 0 116.0 6.408385828640979 1
gene  3 1 23 -3.1734942262264596 0 219.0 -3.1734942262264596 1
gene  3 23 9 3.2220734020290487 0 302.0 3.2220734020290487 1
gene  1 1 100 -3.6560829232143863 0 504.0 -3.6560829232143863 1
gene  1 100 4 -2.594884949993238 0 505.0 -2.594884949993238 1
gene  2 23 100 4.079114381357271 0 554.0 4.079114381357271 1
gene  3 100 9 -4.335664766448396 0 566.0 -4.335664766448396 1
gene  3 23 136 7.081955522671794 0 684.0 7.081955522671794 1
gene  3 136 9 -11.313223993568002 0 685.0 -11.313223993568002 1
gene  1 2 144 0.03815668437060493 0 714.0 0.03815668437060493 1
gene  1 144 9 2.2701014317493957 0 715.0 2.2701014317493957 1
gene  1 144 100 2.9987278853244064 0 881.0 2.9987278853244064 1
gene  3 23 144 -5.8262979148418985 0 1076.0 -5.8262979148418985 1
gene  2 1 144 12.267388436924506 0 1098.0 12.267388436924506 1
gene  2 23 228 3.4433471293434925 0 1138.0 3.4433471293434925 1
gene  2 228 4 1.850581221998199 0 1139.0 1.850581221998199 1
gene  3 136 100 0.006926490891882353 0 1178.0 0.006926490891882353 1
gene  3 1 228 2.736028689295814 0 1201.0 2.736028689295814 1
gene  2 1 136 1.0739588212686244 0 1214.0 1.0739588212686244 1
gene  1 1 280 -0.2801495079745944 0 1344.0 -0.2801495079745944 1
gene  1 280 9 -2.014399085051134 0 1345.0 -2.014399085051134 1
gene  3 144 228 -1.5903352344022617 0 1361.0 -1.5903352344022617 1
gene  1 144 310 -1.2264893765396847 0 1470.0 -1.2264893765396847 1
gene  1 310 9 -1.2305451517145982 0 1471.0 -1.2305451517145982 1
gene  2 9 228 -0.5635257319644815 0 1610.0 -0.5635257319644815 1
genomeend 34
/*-------------------------------------------------------------------*/
/* Species # 035         : (size= 006) (AvfFit= 9.000) (Age= 73.000)  */
/*-------------------------------------------------------------------*/
/* Organism # 035 Fitness:  0.000 Error:  0.000                      */
genomestart  35
trait 1 0.0 0.8565563374454426 0.0 0.0 0.15333156610226453 0.8665985114548865 0.23372645583909035 0.01098946112634236 
trait 2 0.2 0.0 0.0 0.0 0.0 0.09817277543460368 0.7057383787128033 0.0 
trait 3 0.8202278545524262 0.0 0.0 0.18407433746337662 0.011916036990156725 0.0 0.686735473009081 0.0 
node 1 3 1 1
node 2 1 1 1
node 3 1 1 3
node 4 1 0 2
node 9 1 0 0
node 10 1 0 0
node 31 1 0 0
node 68 1 0 0
node 94 1 0 0
node 148 2 0 0
node 157 1 0 0
node 210 1 0 0
gene  2 1 4 22.001140477483784 0 1.0 22.001140477483784 1
gene  2 2 4 18.296078497491457 0 2.0 18.296078497491457 1
gene  3 3 4 -3.7323665222896483 0 3.0 -3.7323665222896483 1
gene  1 1 9 -13.643682760570885 0 12.0 -13.643682760570885 0
gene  1 9 4 -1.2578960658823684 0 13.0 -1.2578960658823684 1
gene  2 2 10 0.6536837585376418 0 16.0 0.6536837585376418 1
gene  2 10 4 1.5821503474155691 0 17.0 1.5821503474155691 1
gene  1 2 9 1.0829507053086431 0 22.0 1.0829507053086431 1
gene  3 1 10 0.757770033328018 0 49.0 0.757770033328018 1
gene  1 10 9 1.8070541647101979 0 91.0 1.8070541647101979 1
gene  1 9 31 11.388404264851658 0 114.0 11.388404264851658 1
gene  1 31 4 -2.6247346211543254 0 115.0 -2.6247346211543254 1
gene  2 1 68 10.328805157133349 0 311.0 10.328805157133349 1
gene  1 68 4 -6.568393478424288 0 312.0 -6.568393478424288 1
gene  1 1 94 2.1990092162248334 0 465.0 2.1990092162248334 1
gene  1 94 9 -6.156214575572234 0 466.0 -6.156214575572234 1
gene  1 10 68 4.602558657686151 0 614.0 4.602558657686151 1
gene  1 68 148 0.7319421344385783 0 730.0 0.7319421344385783 1
gene  1 148 4 -3.4296668147473897 0 731.0 -3.4296668147473897 1
gene  1 31 157 1.6509040219164217 0 774.0 1.6509040219164217 1
gene  1 157 4 -0.35095748241357916 0 775.0 -0.35095748241357916 1
gene  3 148 9 -0.9730875904462342 0 940.0 -0.9730875904462342 1
gene  2 3 157 0.6015294232889159 0 989.0 0.6015294232889159 1
gene  1 68 210 1.054414595046512 0 1044.0 1.054414595046512 1
gene  1 210 148 -3.214594850978983 0 1045.0 -3.214594850978983 1
gene  3 1 31 -2.5839734789923714 0 1121.0 -2.5839734789923714 1
gene  2 1 210 0.8243906699118144 0 1502.0 0.8243906699118144 1
genomeend 35
/* Organism # 036 Fitness:  0.000 Error:  0.000                      */
genomestart  36
trait 1 0.0 0.8565563374454426 0.0 0.0 0.15333156610226453 0.8665985114548865 0.23372645583909035 0.01098946112634236 
trait 2 0.2 0.0 0.0 0.0 0.0 0.09817277543460368 0.7057383787128033 0.0 
trait 3 0.8202278545524262 0.0 0.0 0.18407433746337662 0.011916036990156725 0.0 0.686735473009081 0.0 
node 1 3 1 1
node 2 1 1 1
node 3 1 1 3
node 4 1 0 2
node 9 1 0 0
node 10 1 0 0
node 31 1 0 0
node 68 1 0 0
node 94 1 0 0
node 148 2 0 0
node 157 1 0 0
node 210 1 0 0
gene  2 1 4 22.001140477483784 0 1.0 22.001140477483784 1
gene  2 2 4 18.296078497491457 0 2.0 18.296078497491457 1
gene  3 3 4 -3.7323665222896483 0 3.0 -3.7323665222896483 1
gene  1 1 9 -13.643682760570885 0 12.0 -13.643682760570885 0
gene  1 9 4 -1.2578960658823684 0 13.0 -1.2578960658823684 1
gene  2 2 10 0.6536837585376418 0 16.0 0.6536837585376418 1
gene  2 10 4 1.5821503474155691 0 17.0 1.5821503474155691 1
gene  1 2 9 1.0829507053086431 0 22.0 1.0829507053086431 1
gene  3 1 10 0.757770033328018 0 49.0 0.757770033328018 1
gene  1 10 9 1.8070541647101979 0 91.0 1.8070541647101979 1
gene  1 9 31 11.388404264851658 0 114.0 11.388404264851658 1
gene  1 31 4 -2.6247346211543254 0 115.0 -2.6247346211543254 1
gene  2 1 68 10.328805157133349 0 311.0 10.328805157133349 1
gene  1 68 4 -6.568393478424288 0 312.0 -6.568393478424288 1
gene  1 1 94 2.1990092162248334 0 465.0 2.1990092162248334 1
gene  1 94 9 -6.156214575572234 0 466.0 -6.156214575572234 1
gene  1 10 68 4.602558657686151 0 614.0 4.602558657686151 1
gene  1 68 148 0.7319421344385783 0 730.0 0.7319421344385783 1
gene  1 148 4 -3.4296668147473897 0 731.0 -3.4296668147473897 1
gene  1 31 157 1.6509040219164217 0 774.0 1.6509040219164217 1
gene  1 157 4 -0.35095748241357916 0 775.0 -0.35095748241357916 1
gene  3 148 9 -0.9730875904462342 0 940.0 -0.9730875904462342 1
gene  2 3 157 0.6015294232889159 0 989.0 0.6015294232889159 1
gene  1 68 210 1.054414595046512 0 1044.0 1.054414595046512 1
gene  1 210 148 -3.214594850978983 0 1045.0 -3.214594850978983 1
gene  3 1 31 -2.5839734789923714 0 1121.0 -2.5839734789923714 1
gene  2 1 210 0.8243906699118144 0 1502.0 0.8243906699118144 1
gene  2 3 148 5.111121063302636 0 1696.0 5.111121063302636 1
genomeend 36
/* Organism # 037 Fitness:  0.000 Error:  0.000                      */
genomestart  37
trait 1 0.0 0.8565563374454426 0.0 0.0 0.15333156610226453 0.8665985114548865 0.23372645583909035 0.01098946112634236 
trait 2 0.017874008027507993 0.0 0.0 0.08853697595706167 0.2848777082856411 0.12827263969866798 0.7057383787128033 0.5117791175662503 
trait 3 0.8202278545524262 0.0 0.0 0.18407433746337662 0.011916036990156725 0.0 0.686735473009081 0.0 
node 1 3 1 1
node 2 1 1 1
node 3 1 1 3
node 4 1 0 2
node 9 1 0 0
node 10 1 0 0
node 31 1 0 0
node 68 1 0 0
node 94 1 0 0
node 148 2 0 0
node 157 1 0 0
node 210 1 0 0
gene  2 1 4 22.679914244525687 0 1.0 22.679914244525687 1
gene  2 2 4 20.421465513274406 0 2.0 20.421465513274406 1
gene  3 3 4 -2.141471071288959 0 3.0 -2.141471071288959 1
gene  1 1 9 -1.1061437918104988 0 12.0 -1.1061437918104988 0
gene  1 9 4 -2.2676835784213987 0 13.0 -2.2676835784213987 1
gene  2 2 10 0.9281561652795414 0 16.0 0.9281561652795414 1
gene  2 10 4 0.3285557963615211 0 17.0 0.3285557963615211 1
gene  1 2 9 1.8264490100400124 0 22.0 1.8264490100400124 1
gene  3 1 10 0.757770033328018 0 49.0 0.757770033328018 1
gene  1 10 9 2.483292644877687 0 91.0 2.483292644877687 1
gene  1 9 31 13.330768014408873 0 114.0 13.330768014408873 1
gene  1 31 4 -4.457030637194331 0 115.0 -4.457030637194331 1
gene  2 1 68 10.328805157133349 0 311.0 10.328805157133349 1
gene  1 68 4 -4.682234752014252 0 312.0 -4.682234752014252 1
gene  1 1 94 -0.7782437064495198 0 465.0 -0.7782437064495198 1
gene  1 94 9 -5.838146175602859 0 466.0 -5.838146175602859 1
gene  1 10 68 2.728248351412148 0 614.0 2.728248351412148 1
gene  1 68 148 2.4755663826149483 0 730.0 2.4755663826149483 1
gene  1 148 4 -2.855231370719677 0 731.0 -2.855231370719677 1
gene  1 31 157 3.5676137782065815 0 774.0 3.5676137782065815 1
gene  1 157 4 -1.1497287296927314 0 775.0 -1.1497287296927314 1
gene  3 148 9 -0.7226177044593314 0 940.0 -0.7226177044593314 1
gene  2 3 157 0.6015294232889159 0 989.0 0.6015294232889159 1
gene  1 68 210 1.3576003916793808 0 1044.0 1.3576003916793808 1
gene  1 210 148 -4.7692152477607195 0 1045.0 -4.7692152477607195 1
gene  3 1 31 -3.5905536558437423 0 1121.0 -3.5905536558437423 1
gene  2 1 210 -1.435733262860878 0 1502.0 -1.435733262860878 1
genomeend 37
/* Organism # 038 Fitness:  0.000 Error:  0.000                      */
genomestart  38
trait 1 0.0 0.8565563374454426 0.0 0.0 0.15333156610226453 0.8665985114548865 0.23372645583909035 0.01098946112634236 
trait 2 0.2 0.0 0.10050755370291142 0.0 0.0 0.21999251526482944 0.7057383787128033 0.8032115587410635 
trait 3 0.8202278545524262 0.0 0.0 0.18407433746337662 0.011916036990156725 0.0 0.686735473009081 0.0 
node 1 3 1 1
node 2 1 1 1
node 3 1 1 3
node 4 1 0 2
node 9 1 0 0
node 10 1 0 0
node 31 1 0 0
node 68 1 0 0
node 94 1 0 0
node 148 2 0 0
node 157 1 0 0
node 210 1 0 0
gene  2 1 4 21.298946948965995 0 1.0 21.298946948965995 1
gene  2 2 4 20.274646051727196 0 2.0 20.274646051727196 1
gene  3 3 4 -0.04864269149375128 0 3.0 -0.04864269149375128 1
gene  1 1 9 -11.676223648879114 0 12.0 -11.676223648879114 0
gene  1 9 4 -0.2976845981886177 0 13.0 -0.2976845981886177 1
gene  2 2 10 0.6536837585376418 0 16.0 0.6536837585376418 1
gene  2 10 4 1.1517441798485026 0 17.0 1.1517441798485026 1
gene  1 2 9 -0.29909948199271685 0 22.0 -0.29909948199271685 1
gene  3 1 10 0.3139634826681789 0 49.0 0.3139634826681789 1
gene  1 10 9 3.8990463755777007 0 91.0 3.8990463755777007 1
gene  1 9 31 10.3205157943826 0 114.0 10.3205157943826 1
gene  1 31 4 -2.6247346211543254 0 115.0 -2.6247346211543254 1
gene  2 1 68 10.030180669515577 0 311.0 10.030180669515577 1
gene  1 68 4 -1.1365460172373145 0 312.0 -1.1365460172373145 1
gene  1 1 94 2.572024185683353 0 465.0 2.572024185683353 1
gene  1 94 9 -7.754839105053428 0 466.0 -7.754839105053428 1
gene  1 10 68 -2.255618039021637 0 614.0 -2.255618039021637 1
gene  1 68 148 2.247188845969423 0 730.0 2.247188845969423 1
gene  1 148 4 -5.395617565659094 0 731.0 -5.395617565659094 1
gene  1 31 157 3.761966985391569 0 774.0 3.761966985391569 1
gene  1 157 4 -1.5270864359783145 0 775.0 -1.5270864359783145 1
gene  3 148 9 2.113305286078822 0 940.0 2.113305286078822 1
gene  2 3 157 -1.0067349904147198 0 989.0 -1.0067349904147198 1
gene  1 68 210 1.054414595046512 0 1044.0 1.054414595046512 1
gene  1 210 148 -4.238871568708655 0 1045.0 -4.238871568708655 1
gene  3 1 31 -2.1173624335026004 0 1121.0 -2.1173624335026004 1
gene  2 1 210 -1.0020386769115737 0 1502.0 -1.0020386769115737 1
genomeend 38
/* Organism # 039 Fitness:  0.000 Error:  0.000                      */
genomestart  39
trait 1 0.0 0.8565563374454426 0.0 0.0 0.15333156610226453 0.8665985114548865 0.23372645583909035 0.01098946112634236 
trait 2 0.2 0.0 0.0 0.0 0.0 0.09817277543460368 0.7057383787128033 0.0 
trait 3 0.8202278545524262 0.0 0.0 0.18407433746337662 0.011916036990156725 0.0 0.686735473009081 0.0 
node 1 3 1 1
node 2 1 1 1
node 3 1 1 3
node 4 2 0 2
node 9 1 0 0
node 10 1 0 0
node 31 1 0 0
node 68 1 0 0
node 94 1 0 0
node 148 2 0 0
node 157 1 0 0
node 210 1 0 0
gene  2 1 4 22.588114729994746 0 1.0 22.588114729994746 1
gene  2 2 4 18.296078497491457 0 2.0 18.296078497491457 1
gene  3 3 4 -1.5088421005604662 0 3.0 -1.5088421005604662 1
gene  1 1 9 -13.066177620778046 0 12.0 -13.066177620778046 0
gene  1 9 4 -0.5977601923128708 0 13.0 -0.5977601923128708 1
gene  2 2 10 0.6536837585376418 0 16.0 0.6536837585376418 1
gene  2 10 4 -0.19649034979547908 0 17.0 -0.19649034979547908 1
gene  1 2 9 2.6973625218093806 0 22.0 2.6973625218093806 1
gene  3 1 10 2.8348970271044007 0 49.0 2.8348970271044007 1
gene  1 10 9 0.8531792892677315 0 91.0 0.8531792892677315 1
gene  1 9 31 11.388404264851658 0 114.0 11.388404264851658 1
gene  1 31 4 -2.1913104877397913 0 115.0 -2.1913104877397913 1
gene  2 1 68 -1.7982184186610737 0 311.0 -1.7982184186610737 1
gene  1 68 4 -1.3663490017952875 0 312.0 -1.3663490017952875 1
gene  1 1 94 -1.8925871724885277 0 465.0 -1.8925871724885277 1
gene  1 94 9 -5.05628355273733 0 466.0 -5.05628355273733 1
gene  1 10 68 1.7723893933977415 0 614.0 1.7723893933977415 1
gene  1 68 148 0.2674920848975807 0 730.0 0.2674920848975807 1
gene  1 148 4 -4.095237803979129 0 731.0 -4.095237803979129 1
gene  1 31 157 2.6238443506426776 0 774.0 2.6238443506426776 1
gene  1 157 4 1.2913193313946958 0 775.0 1.2913193313946958 1
gene  3 148 9 -0.9730875904462342 0 940.0 -0.9730875904462342 1
gene  2 3 157 0.6015294232889159 0 989.0 0.6015294232889159 1
gene  1 68 210 -1.8522057739715847 0 1044.0 -1.8522057739715847 1
gene  1 210 148 -0.88274580546374 0 1045.0 -0.88274580546374 1
gene  3 1 31 -0.3612673538306086 0 1121.0 -0.3612673538306086 1
gene  2 1 210 2.2747410684350964 0 1502.0 2.2747410684350964 1
genomeend 39
/* Organism # 040 Fitness:  0.000 Error:  0.000                      */
genomestart  40
trait 1 0.0 0.8565563374454426 0.0 0.0 0.15333156610226453 0.8665985114548865 0.23372645583909035 0.01098946112634236 
trait 2 0.2 0.0 0.0 0.0 0.0 0.09817277543460368 0.7057383787128033 0.0 
trait 3 0.8202278545524262 0.0 0.0 0.18407433746337662 0.011916036990156725 0.0 0.686735473009081 0.0 
node 1 3 1 1
node 2 1 1 1
node 3 1 1 3
node 4 1 0 2
node 9 1 0 0
node 10 1 0 0
node 31 1 0 0
node 68 1 0 0
node 94 1 0 0
node 148 2 0 0
node 157 1 0 0
node 210 1 0 0
gene  2 1 4 24.17298654440623 0 1.0 24.17298654440623 1
gene  2 2 4 19.638143083567723 0 2.0 19.638143083567723 1
gene  3 3 4 -4.913120008673635 0 3.0 -4.913120008673635 1
gene  1 1 9 -12.895219079166145 0 12.0 -12.895219079166145 0
gene  1 9 4 -0.5043725991751573 0 13.0 -0.5043725991751573 1
gene  2 2 10 -0.22120037269271442 0 16.0 -0.22120037269271442 1
gene  2 10 4 0.2333170977425172 0 17.0 0.2333170977425172 1
gene  1 2 9 -0.09338939341888852 0 22.0 -0.09338939341888852 1
gene  3 1 10 2.5453609796330117 0 49.0 2.5453609796330117 1
gene  1 10 9 0.4799850621096171 0 91.0 0.4799850621096171 1
gene  1 9 31 11.149032868860788 0 114.0 11.149032868860788 1
gene  1 31 4 -1.784993333148655 0 115.0 -1.784993333148655 1
gene  2 1 68 10.583948260612711 0 311.0 10.583948260612711 1
gene  1 68 4 -4.683162745535899 0 312.0 -4.683162745535899 1
gene  1 1 94 2.1756102695661004 0 465.0 2.1756102695661004 1
gene  1 94 9 -4.41138799302532 0 466.0 -4.41138799302532 1
gene  1 10 68 2.4891443049367146 0 614.0 2.4891443049367146 1
gene  1 68 148 2.221449055396924 0 730.0 2.221449055396924 1
gene  1 148 4 -2.1461309387968184 0 731.0 -2.1461309387968184 1
gene  1 31 157 1.8402211233922474 0 774.0 1.8402211233922474 1
gene  1 157 4 1.8624739620644708 0 775.0 1.8624739620644708 1
gene  3 148 9 -2.1601588360974047 0 940.0 -2.1601588360974047 1
gene  2 3 157 0.2940891784912638 0 989.0 0.2940891784912638 1
gene  1 68 210 0.5197940120177824 0 1044.0 0.5197940120177824 1
gene  1 210 148 -3.214594850978983 0 1045.0 -3.214594850978983 1
gene  3 1 31 -0.6294795559567883 0 1121.0 -0.6294795559567883 1
gene  2 1 210 2.5725154277859668 0 1502.0 2.5725154277859668 1
genomeend 40
/*-------------------------------------------------------------------*/
/* Species # 037         : (size= 005) (AvfFit= 7.722) (Age= 71.000)  */
/*-------------------------------------------------------------------*/
/* Organism # 041 Fitness:  0.000 Error:  0.000                      */
genomestart  41
trait 1 0.894108218889876 0.0 0.0 0.6790239477579343 0.0 0.0 0.0 0.48886634075710933 
trait 2 0.0 1.9406179468863076 0.3873418049724866 0.0 0.0 0.48917285957159584 0.0 0.0 
trait 3 0.0 0.0 0.22272229030983492 0.16592616334726906 0.34795875500182705 0.0 0.16250372436449412 0.7558820178079048 
node 1 1 1 1
node 2 1 1 1
node 3 1 1 3
node 4 3 0 2
node 9 1 0 0
node 10 1 0 0
node 11 1 0 0
node 32 1 0 0
node 76 1 0 0
node 79 2 0 0
node 282 1 0 0
gene  2 1 4 -0.9168970030781132 0 1.0 -0.9168970030781132 1
gene  2 2 4 17.85914537560084 0 2.0 17.85914537560084 1
gene  3 3 4 -10.275019138049078 0 3.0 -10.275019138049078 1
gene  1 1 9 0.39968566525054205 0 12.0 0.39968566525054205 1
gene  1 9 4 1.9810504681007943 0 13.0 1.9810504681007943 1
gene  2 2 10 4.674847162135878 0 16.0 4.674847162135878 1
gene  2 10 4 5.3983616511720705 0 17.0 5.3983616511720705 1
gene  1 1 11 0.9522506999145217 0 20.0 0.9522506999145217 1
gene  1 11 9 -0.63950191759025 0 21.0 -0.63950191759025 1
gene  2 10 11 -21.585391701753018 0 26.0 -21.585391701753018 1
gene  1 1 32 6.643003611389728 0 121.0 6.643003611389728 1
gene  1 32 11 -4.753194193576655 0 122.0 -4.753194193576655 1
gene  3 2 32 0.4548273268155868 0 178.0 0.4548273268155868 0
gene  3 1 10 -0.1470956499622858 0 352.0 -0.1470956499622858 1
gene  1 1 76 1.4542429606692107 0 369.0 1.4542429606692107 1
gene  1 76 9 -10.14112072902293 0 370.0 -10.14112072902293 1
gene  1 76 79 0.008911796249286952 0 387.0 0.008911796249286952 1
gene  2 79 9 -0.10631032288064002 0 388.0 -0.10631032288064002 1
gene  3 11 79 1.3993897853765924 0 480.0 1.3993897853765924 1
gene  2 2 11 2.284676451831631 0 818.0 2.284676451831631 1
gene  1 2 76 -2.2044851502451515 0 1057.0 -2.2044851502451515 1
gene  1 2 79 -1.5446544610283328 0 1262.0 -1.5446544610283328 1
gene  3 2 282 -1.9092387434026015 0 1349.0 -1.9092387434026015 1
gene  2 282 32 -0.42923164759321053 0 1350.0 -0.42923164759321053 1
gene  2 32 10 0.20428101782191566 0 1371.0 0.20428101782191566 1
gene  1 282 9 -0.8257167007343114 0 1537.0 -0.8257167007343114 1
genomeend 41
/* Organism # 042 Fitness:  0.000 Error:  0.000                      */
genomestart  42
trait 1 0.894108218889876 0.0 0.0 0.6790239477579343 0.0 0.0 0.0 0.48886634075710933 
trait 2 0.0 1.9406179468863076 0.3873418049724866 0.0 0.0 0.7950567033813486 0.0 0.0 
trait 3 0.0 0.0 0.22272229030983492 0.16592616334726906 0.34795875500182705 0.0 0.16250372436449412 0.7558820178079048 
node 1 1 1 1
node 2 1 1 1
node 3 1 1 3
node 4 3 0 2
node 9 1 0 0
node 10 1 0 0
node 11 1 0 0
node 32 1 0 0
node 76 1 0 0
node 79 2 0 0
node 282 1 0 0
gene  2 1 4 -21.329059170444374 0 1.0 -21.329059170444374 1
gene  2 2 4 15.627045291689761 0 2.0 15.627045291689761 1
gene  3 3 4 -8.967417382092787 0 3.0 -8.967417382092787 1
gene  1 1 9 -6.1154511428684675 0 12.0 -6.1154511428684675 1
gene  1 9 4 1.0450248156729716 0 13.0 1.0450248156729716 1
gene  2 2 10 4.327536984621775 0 16.0 4.327536984621775 1
gene  2 10 4 5.984871358820047 0 17.0 5.984871358820047 1
gene  1 1 11 -1.1537860787881984 0 20.0 -1.1537860787881984 1
gene  1 11 9 -2.2936055851032076 0 21.0 -2.2936055851032076 1
gene  2 10 11 -20.149584273699016 0 26.0 -20.149584273699016 1
gene  1 1 32 6.393161003049111 0 121.0 6.393161003049111 1
gene  1 32 11 -5.704764636351876 0 122.0 -5.704764636351876 1
gene  3 2 32 2.5486878754837714 0 178.0 2.5486878754837714 0
gene  3 1 10 -9.804244425886761 0 352.0 -9.804244425886761 1
gene  1 1 76 -0.08921585830431372 0 369.0 -0.08921585830431372 1
gene  1 76 9 -12.355437246085481 0 370.0 -12.355437246085481 1
gene  1 76 79 -0.8224885969949834 0 387.0 -0.8224885969949834 1
gene  2 79 9 -0.2884226502920309 0 388.0 -0.2884226502920309 1
gene  3 11 79 0.6829239313308819 0 480.0 0.6829239313308819 1
gene  2 2 11 1.3975428504526677 0 818.0 1.3975428504526677 1
gene  1 2 76 6.7711366916876266 0 1057.0 6.7711366916876266 1
gene  1 2 79 -0.7944294102587197 0 1262.0 -0.7944294102587197 1
gene  3 2 282 -1.9092387434026015 0 1349.0 -1.9092387434026015 1
gene  2 282 32 2.8956295212931256 0 1350.0 2.8956295212931256 1
gene  2 32 10 -1.9910260684583085 0 1371.0 -1.9910260684583085 1
gene  1 282 9 -3.197383057998805 0 1537.0 -3.197383057998805 1
genomeend 42
/* Organism # 043 Fitness:  0.000 Error:  0.000                      */
genomestart  43
trait 1 0.894108218889876 0.0 0.0 0.6790239477579343 0.0 0.0 0.0 0.48886634075710933 
trait 2 0.0 1.9406179468863076 0.3873418049724866 0.0 0.0 0.7950567033813486 0.0 0.0 
trait 3 0.0 0.0 0.22272229030983492 0.16592616334726906 0.34795875500182705 0.0 0.16250372436449412 0.7558820178079048 
node 1 1 1 1
node 2 1 1 1
node 3 1 1 3
node 4 3 0 2
node 9 1 0 0
node 10 1 0 0
node 11 1 0 0
node 32 1 0 0
node 76 1 0 0
node 79 2 0 0
node 282 1 0 0
gene  2 1 4 -1.7245502879885486 0 1.0 -1.7245502879885486 1
gene  2 2 4 18.694401948248395 0 2.0 18.694401948248395 1
gene  3 3 4 -9.201618719317867 0 3.0 -9.201618719317867 1
gene  1 1 9 -2.100869293496243 0 12.0 -2.100869293496243 1
gene  1 9 4 1.9930642608306914 0 13.0 1.9930642608306914 1
gene  2 2 10 7.690991771281832 0 16.0 7.690991771281832 1
gene  2 10 4 1.8168882652489189 0 17.0 1.8168882652489189 1
gene  1 1 11 0.36564306895904597 0 20.0 0.36564306895904597 1
gene  1 11 9 -1.7879485714768848 0 21.0 -1.7879485714768848 1
gene  2 10 11 -21.799992866451362 0 26.0 -21.799992866451362 1
gene  1 1 32 6.386516791005659 0 121.0 6.386516791005659 1
gene  1 32 11 -4.883265449498645 0 122.0 -4.883265449498645 1
gene  3 2 32 0.8836229171276142 0 178.0 0.8836229171276142 0
gene  3 1 10 -9.612105024457701 0 352.0 -9.612105024457701 1
gene  1 1 76 2.1676066017218334 0 369.0 2.1676066017218334 1
gene  1 76 9 -9.54269055244543 0 370.0 -9.54269055244543 1
gene  2 76 79 -2.6548758041585248 0 387.0 -2.6548758041585248 1
gene  2 79 9 0.32697270885015817 0 388.0 0.32697270885015817 1
gene  3 11 79 4.719123916588238 0 480.0 4.719123916588238 1
gene  2 2 11 -1.6259434413403668 0 818.0 -1.6259434413403668 1
gene  1 2 76 1.5407209093761456 0 1057.0 1.5407209093761456 1
gene  1 2 79 0.4395878788071847 0 1262.0 0.4395878788071847 1
gene  3 2 282 -3.8442851998047916 0 1349.0 -3.8442851998047916 1
gene  2 282 32 3.6707905914235983 0 1350.0 3.6707905914235983 1
gene  2 32 10 -1.9155757132273026 0 1371.0 -1.9155757132273026 1
gene  1 282 9 -2.3826902190291297 0 1537.0 -2.3826902190291297 1
genomeend 43
/* Organism # 044 Fitness:  0.000 Error:  0.000                      */
genomestart  44
trait 1 0.894108218889876 0.0 0.0 0.6790239477579343 0.0 0.0 0.0 0.48886634075710933 
trait 2 0.0 1.9406179468863076 0.3873418049724866 0.0 0.0 0.7950567033813486 0.0 0.0 
trait 3 0.0 0.0 0.22272229030983492 0.16592616334726906 0.34795875500182705 0.0 0.16250372436449412 0.7558820178079048 
node 1 1 1 1
node 2 1 1 1
node 3 1 1 3
node 4 3 0 2
node 9 1 0 0
node 10 1 0 0
node 11 1 0 0
node 32 1 0 0
node 76 1 0 0
node 79 2 0 0
node 282 1 0 0
gene  2 1 4 -20.49376101234248 0 1.0 -20.49376101234248 1
gene  2 2 4 18.76321135588129 0 2.0 18.76321135588129 1
gene  3 3 4 -11.17971089391474 0 3.0 -11.17971089391474 1
gene  1 1 9 -5.016917377692731 0 12.0 -5.016917377692731 1
gene  1 9 4 1.4174884014263809 0 13.0 1.4174884014263809 1
gene  2 2 10 6.013870818260174 0 16.0 6.013870818260174 1
gene  2 10 4 8.222869796865035 0 17.0 8.222869796865035 1
gene  1 1 11 -0.8995397857303378 0 20.0 -0.8995397857303378 1
gene  1 11 9 1.3437099825327263 0 21.0 1.3437099825327263 1
gene  2 10 11 -20.649281540687724 0 26.0 -20.649281540687724 1
gene  1 1 32 4.549898708705815 0 121.0 4.549898708705815 1
gene  1 32 11 -5.0695748526960775 0 122.0 -5.0695748526960775 1
gene  3 2 32 -0.48204835593201145 0 178.0 -0.48204835593201145 0
gene  3 1 10 -9.623901156454519 0 352.0 -9.623901156454519 1
gene  1 1 76 -2.0971414776375794 0 369.0 -2.0971414776375794 1
gene  1 76 9 -8.632195364641357 0 370.0 -8.632195364641357 1
gene  1 76 79 -0.3043256698088311 0 387.0 -0.3043256698088311 1
gene  2 79 9 1.5639451798736654 0 388.0 1.5639451798736654 1
gene  3 11 79 5.032019492394822 0 480.0 5.032019492394822 1
gene  2 2 11 3.2528910555867756 0 818.0 3.2528910555867756 1
gene  1 2 76 5.51008396698129 0 1057.0 5.51008396698129 1
gene  1 2 79 -1.0146443927691415 0 1262.0 -1.0146443927691415 1
gene  3 2 282 -1.9092387434026015 0 1349.0 -1.9092387434026015 1
gene  2 282 32 -0.6314471330340294 0 1350.0 -0.6314471330340294 1
gene  2 32 10 -1.113619161638485 0 1371.0 -1.113619161638485 1
gene  1 282 9 -1.2986620754004763 0 1537.0 -1.2986620754004763 1
genomeend 44
/* Organism # 045 Fitness:  0.000 Error:  0.000                      */
genomestart  45
trait 1 0.894108218889876 0.0 0.0 0.6790239477579343 0.0 0.0 0.0 0.48886634075710933 
trait 2 0.0 1.9406179468863076 0.3873418049724866 0.0 0.0 0.7950567033813486 0.0 0.0 
trait 3 0.0 0.0 0.22272229030983492 0.16592616334726906 0.34795875500182705 0.0 0.16250372436449412 0.7558820178079048 
node 1 1 1 1
node 2 1 1 1
node 3 1 1 3
node 4 3 0 2
node 9 1 0 0
node 10 1 0 0
node 11 1 0 0
node 32 1 0 0
node 76 1 0 0
node 79 2 0 0
node 282 1 0 0
gene  2 1 4 1.6832435202212608 0 1.0 1.6832435202212608 1
gene  2 2 4 18.357929812703546 0 2.0 18.357929812703546 1
gene  3 3 4 -1.7842096970365247 0 3.0 -1.7842096970365247 1
gene  1 1 9 -1.2771529921208122 0 12.0 -1.2771529921208122 1
gene  1 9 4 4.142130679198349 0 13.0 4.142130679198349 1
gene  2 2 10 5.331712341761179 0 16.0 5.331712341761179 1
gene  2 10 4 -0.5428060151064487 0 17.0 -0.5428060151064487 1
gene  1 1 11 1.3529875205129758 0 20.0 1.3529875205129758 1
gene  1 11 9 0.0675637825859518 0 21.0 0.0675637825859518 1
gene  2 10 11 -22.96354763192071 0 26.0 -22.96354763192071 1
gene  1 1 32 0.04182012650225886 0 121.0 0.04182012650225886 1
gene  1 32 11 -6.39344133200535 0 122.0 -6.39344133200535 1
gene  3 2 32 -0.43604559450505254 0 178.0 -0.43604559450505254 0
gene  3 1 10 -13.632870241718706 0 352.0 -13.632870241718706 1
gene  1 1 76 0.5613234926167601 0 369.0 0.5613234926167601 1
gene  1 76 9 -11.074147714000528 0 370.0 -11.074147714000528 1
gene  1 76 79 -0.5911599038944381 0 387.0 -0.5911599038944381 1
gene  2 79 9 -0.5058520643361322 0 388.0 -0.5058520643361322 1
gene  3 11 79 3.497961807291327 0 480.0 3.497961807291327 1
gene  2 2 11 1.9060639036317797 0 818.0 1.9060639036317797 1
gene  1 2 76 5.207071150973517 0 1057.0 5.207071150973517 1
gene  1 2 79 1.7259146790931696 0 1262.0 1.7259146790931696 1
gene  3 2 282 -3.0868807296752463 0 1349.0 -3.0868807296752463 1
gene  2 282 32 0.4789467906108349 0 1350.0 0.4789467906108349 1
gene  2 32 10 -1.3220690554696934 0 1371.0 -1.3220690554696934 1
gene  1 282 9 0.6156413407198108 0 1537.0 0.6156413407198108 1
genomeend 45
/*-------------------------------------------------------------------*/
/* Species # 038         : (size= 005) (AvfFit= 8.975) (Age= 71.000)  */
/*-------------------------------------------------------------------*/
/* Organism # 046 Fitness:  0.000 Error:  0.000                      */
genomestart  46
trait 1 0.1 0.0 0.0 0.0 0.0 0.0 0.4647310470274455 1.1065957937277346 
trait 2 0.2 0.11510783576439065 0.0 0.27725350133149634 0.0 0.0 0.6547166999317137 0.6398043763683771 
trait 3 0.3 0.0 0.17452639239720244 0.10296449378835593 0.014480247481709438 0.0 0.0 0.0 
node 1 1 1 1
node 2 1 1 1
node 3 2 1 3
node 4 2 0 2
node 7 3 0 0
node 17 3 0 0
node 70 3 0 0
node 244 1 0 0
node 322 1 0 0
gene  2 1 4 -9.8782031794719 0 1.0 -9.8782031794719 1
gene  2 2 4 -1.6028919000041462 0 2.0 -1.6028919000041462 1
gene  3 3 4 1.6894584229639067 0 3.0 1.6894584229639067 1
gene  1 1 7 -8.393537840681269 0 8.0 -8.393537840681269 1
gene  2 7 4 0.5204511913093208 0 9.0 0.5204511913093208 1
gene  1 1 17 -0.07662452666713782 0 51.0 -0.07662452666713782 1
gene  1 17 4 -0.14313663152573564 0 52.0 -0.14313663152573564 1
gene  1 2 17 0.056643597669549794 0 73.0 0.056643597669549794 1
gene  3 3 17 -2.703834968556098 0 215.0 -2.703834968556098 1
gene  3 2 7 -7.783130053943307 0 286.0 -7.783130053943307 1
gene  1 1 70 0.3774268857704416 0 325.0 0.3774268857704416 1
gene  1 70 7 -1.2634013673532964 0 326.0 -1.2634013673532964 1
gene  3 2 70 -3.283551965107635 0 453.0 -3.283551965107635 1
gene  2 7 17 5.342621773308126 0 479.0 5.342621773308126 1
gene  2 3 70 0.5067276708858279 0 705.0 0.5067276708858279 1
gene  2 70 17 -4.458215605575523 0 784.0 -4.458215605575523 0
gene  2 2 244 0.3135568656156196 0 1196.0 0.3135568656156196 1
gene  2 244 4 -2.0419221126286233 0 1197.0 -2.0419221126286233 1
gene  3 70 4 -8.224162170733617 0 1479.0 -8.224162170733617 1
gene  2 70 322 -2.9359038097825074 0 1511.0 -2.9359038097825074 1
gene  2 322 17 -0.04378037444688765 0 1512.0 -0.04378037444688765 1
genomeend 46
/* Organism # 047 Fitness:  0.000 Error:  0.000                      */
genomestart  47
trait 1 0.1 0.0 0.0 0.0 0.0 0.0 0.4647310470274455 1.1065957937277346 
trait 2 0.2 0.11510783576439065 0.0 0.27725350133149634 0.0 0.0 0.6547166999317137 0.6398043763683771 
trait 3 0.3 0.0 0.17452639239720244 0.10296449378835593 0.014480247481709438 0.0 0.0 0.0 
node 1 1 1 1
node 2 1 1 1
node 3 2 1 3
node 4 2 0 2
node 7 3 0 0
node 17 3 0 0
node 70 3 0 0
node 244 1 0 0
node 322 1 0 0
gene  2 1 4 -6.593161185059836 0 1.0 -6.593161185059836 1
gene  2 2 4 -1.190510414943612 0 2.0 -1.190510414943612 1
gene  3 3 4 3.266106502743715 0 3.0 3.266106502743715 1
gene  1 1 7 0.6495018144584532 0 8.0 0.6495018144584532 0
gene  2 7 4 -2.0303231008413896 0 9.0 -2.0303231008413896 1
gene  1 1 17 0.22095516627117645 0 51.0 0.22095516627117645 1
gene  1 17 4 -0.3822406560627911 0 52.0 -0.3822406560627911 1
gene  1 2 17 0.18108232358261311 0 73.0 0.18108232358261311 1
gene  3 3 17 -0.23933371108034374 0 215.0 -0.23933371108034374 1
gene  3 2 7 -7.7868096871548165 0 286.0 -7.7868096871548165 1
gene  1 1 70 -1.5611381995585696 0 325.0 -1.5611381995585696 1
gene  1 70 7 -3.2126331400716444 0 326.0 -3.2126331400716444 1
gene  3 2 70 -6.187805104320941 0 453.0 -6.187805104320941 1
gene  2 7 17 8.391392748903375 0 479.0 8.391392748903375 1
gene  2 3 70 0.8512979097343476 0 705.0 0.8512979097343476 1
gene  2 70 17 -1.8441922681572338 0 784.0 -1.8441922681572338 0
gene  2 2 244 -0.9625016587475227 0 1196.0 -0.9625016587475227 1
gene  2 244 4 -4.511322438075612 0 1197.0 -4.511322438075612 1
gene  3 70 4 -7.49816789280751 0 1479.0 -7.49816789280751 1
gene  2 70 322 1.2651940319063315 0 1511.0 1.2651940319063315 1
gene  2 322 17 1.2948245305001531 0 1512.0 1.2948245305001531 1
genomeend 47
/* Organism # 048 Fitness:  0.000 Error:  0.000                      */
genomestart  48
trait 1 0.1 0.0 0.0 0.0 0.0 0.0 0.4647310470274455 1.1065957937277346 
trait 2 0.2 0.11510783576439065 0.0 0.27725350133149634 0.0 0.0 0.6547166999317137 0.6398043763683771 
trait 3 0.3 0.0 0.17452639239720244 0.10296449378835593 0.014480247481709438 0.0 0.0 0.0 
node 1 1 1 1
node 2 1 1 1
node 3 2 1 3
node 4 2 0 2
node 7 3 0 0
node 17 3 0 0
node 70 3 0 0
node 244 1 0 0
node 322 1 0 0
gene  2 1 4 -9.261857864071809 0 1.0 -9.261857864071809 1
gene  2 2 4 -2.3910473094098896 0 2.0 -2.3910473094098896 1
gene  3 3 4 1.9841635005535991 0 3.0 1.9841635005535991 1
gene  1 1 7 -0.9095504678886992 0 8.0 -0.9095504678886992 0
gene  2 7 4 0.6371271148793445 0 9.0 0.6371271148793445 1
gene  1 1 17 -2.8318938238607823 0 51.0 -2.8318938238607823 1
gene  1 17 4 2.3648866319982718 0 52.0 2.3648866319982718 1
gene  1 2 17 2.1988085668757087 0 73.0 2.1988085668757087 1
gene  3 3 17 -3.6803342573878197 0 215.0 -3.6803342573878197 1
gene  3 2 7 -11.215734878485542 0 286.0 -11.215734878485542 1
gene  1 1 70 -1.2168609066852907 0 325.0 -1.2168609066852907 1
gene  1 70 7 -0.13925273462203935 0 326.0 -0.13925273462203935 1
gene  3 2 70 -1.9944751116764738 0 453.0 -1.9944751116764738 1
gene  2 7 17 7.3089355538236935 0 479.0 7.3089355538236935 1
gene  2 3 70 0.046441118631940004 0 705.0 0.046441118631940004 1
gene  2 70 17 -0.4405343037774516 0 784.0 -0.4405343037774516 0
gene  2 2 244 2.0157121846498205 0 1196.0 2.0157121846498205 1
gene  2 244 4 -3.7766692858423503 0 1197.0 -3.7766692858423503 1
gene  3 70 4 -5.744901446053636 0 1479.0 -5.744901446053636 1
gene  2 70 322 -3.1512408366266076 0 1511.0 -3.1512408366266076 1
gene  2 322 17 2.12828632419761 0 1512.0 2.12828632419761 1
genomeend 48
/* Organism # 049 Fitness:  0.000 Error:  0.000                      */
genomestart  49
trait 1 0.1 0.0 0.0 0.6377271731282098 0.19590563220185453 0.0 0.0 1.1065957937277346 
trait 2 0.2 0.11510783576439065 0.0 0.27725350133149634 0.0 0.0 0.6547166999317137 0.6398043763683771 
trait 3 0.3 0.0 0.17452639239720244 0.10296449378835593 0.014480247481709438 0.0 0.0 0.0 
node 1 1 1 1
node 2 1 1 1
node 3 2 1 3
node 4 2 0 2
node 7 3 0 0
node 17 3 0 0
node 70 3 0 0
node 244 1 0 0
node 322 1 0 0
gene  2 1 4 -8.558797045827484 0 1.0 -8.558797045827484 1
gene  2 2 4 -2.029318874715073 0 2.0 -2.029318874715073 1
gene  3 3 4 0.1424799662497871 0 3.0 0.1424799662497871 1
gene  1 1 7 -5.987910696279962 0 8.0 -5.987910696279962 0
gene  2 7 4 0.7652464894927633 0 9.0 0.7652464894927633 1
gene  1 1 17 -3.3161153063963056 0 51.0 -3.3161153063963056 1
gene  1 17 4 -0.780836405192953 0 52.0 -0.780836405192953 1
gene  1 2 17 -0.41295906407726013 0 73.0 -0.41295906407726013 1
gene  3 3 17 -0.5818638129386215 0 215.0 -0.5818638129386215 1
gene  3 2 7 -6.895359848009566 0 286.0 -6.895359848009566 1
gene  1 1 70 0.43389203855225517 0 325.0 0.43389203855225517 1
gene  1 70 7 -0.6384243692567901 0 326.0 -0.6384243692567901 1
gene  3 2 70 -2.450759277181331 0 453.0 -2.450759277181331 1
gene  2 7 17 9.479803565483602 0 479.0 9.479803565483602 1
gene  2 3 70 1.324516143737071 0 705.0 1.324516143737071 1
gene  2 70 17 -2.70672220011984 0 784.0 -2.70672220011984 0
gene  2 2 244 1.9676969757473324 0 1196.0 1.9676969757473324 1
gene  2 244 4 -5.255222549828658 0 1197.0 -5.255222549828658 1
gene  3 70 4 -10.132797333275157 0 1479.0 -10.132797333275157 1
gene  2 70 322 -1.344554067707806 0 1511.0 -1.344554067707806 1
gene  2 322 17 0.025348599258175675 0 1512.0 0.025348599258175675 1
genomeend 49
/* Organism # 050 Fitness:  0.000 Error:  0.000                      */
genomestart  50
trait 1 0.1 0.0 0.0 0.0 0.0 0.0 0.4647310470274455 1.1065957937277346 
trait 2 0.2 0.11510783576439065 0.0 0.27725350133149634 0.0 0.0 0.6547166999317137 0.6398043763683771 
trait 3 0.3 0.0 0.17452639239720244 0.10296449378835593 0.014480247481709438 0.0 0.0 0.0 
node 1 1 1 1
node 2 1 1 1
node 3 2 1 3
node 4 2 0 2
node 7 3 0 0
node 17 3 0 0
node 70 3 0 0
node 244 1 0 0
node 322 1 0 0
gene  2 1 4 -10.552745308913426 0 1.0 -10.552745308913426 1
gene  2 2 4 6.9673027979549715 0 2.0 6.9673027979549715 1
gene  3 3 4 3.4632571220574526 0 3.0 3.4632571220574526 1
gene  1 1 7 -6.372608428675007 0 8.0 -6.372608428675007 0
gene  2 7 4 -0.5111385095837835 0 9.0 -0.5111385095837835 1
gene  1 1 17 -3.646499931075171 0 51.0 -3.646499931075171 1
gene  1 17 4 0.49071836991740647 0 52.0 0.49071836991740647 1
gene  1 2 17 2.889839824847686 0 73.0 2.889839824847686 1
gene  3 3 17 -4.162891316450509 0 215.0 -4.162891316450509 1
gene  3 2 7 -6.3880384421596474 0 286.0 -6.3880384421596474 1
gene  1 1 70 1.9135762670260985 0 325.0 1.9135762670260985 1
gene  1 70 7 0.3726389277656952 0 326.0 0.3726389277656952 1
gene  3 2 70 -3.011834139089452 0 453.0 -3.011834139089452 1
gene  2 7 17 4.925043440110937 0 479.0 4.925043440110937 1
gene  2 3 70 -0.06537918941472676 0 705.0 -0.06537918941472676 1
gene  2 70 17 -2.7020257526895355 0 784.0 -2.7020257526895355 0
gene  2 2 244 -0.22141589657992355 0 1196.0 -0.22141589657992355 1
gene  2 244 4 -4.176598420920738 0 1197.0 -4.176598420920738 1
gene  3 70 4 -8.812300957741552 0 1479.0 -8.812300957741552 1
gene  2 70 322 -2.5090619182116827 0 1511.0 -2.5090619182116827 1
gene  2 322 17 -0.35544181308099176 0 1512.0 -0.35544181308099176 1
genomeend 50
/*-------------------------------------------------------------------*/
/* Species # 039         : (size= 003) (AvfFit= 8.002) (Age= 67.000)  */
/*-------------------------------------------------------------------*/
/* Organism # 051 Fitness:  0.000 Error:  0.000                      */
genomestart  51
trait 1 0.1 0.0 0.0 0.0 0.0 0.0 0.0 0.0 
trait 2 0.8543828414792864 1.344883689835191 0.0 0.0 0.0 1.6793486017592916 0.9046770549620986 0.1459502773355421 
trait 3 0.0 0.49821033324468567 0.04090462321809432 0.0 0.9406641329449891 1.1896776314533621 0.0 0.0 
node 1 3 1 1
node 2 1 1 1
node 3 1 1 3
node 4 3 0 2
node 365 1 0 0
gene  1 1 4 22.6922933056617 0 1.0 22.6922933056617 0
gene  3 2 4 25.911904547086635 0 2.0 25.911904547086635 1
gene  2 3 4 -14.882849615501703 0 3.0 -14.882849615501703 1
gene  1 1 365 1.0 0 1689.0 0.0 1
gene  1 365 4 22.6922933056617 0 1690.0 0.0 1
genomeend 51
/* Organism # 052 Fitness:  0.000 Error:  0.000                      */
genomestart  52
trait 1 0.1 0.0 0.0 0.0 0.0 0.0 0.0 0.0 
